Replicate,Generation,Individual,b2,b3,b4,b5,b6,b7,b8,b9,b10,w12,w13,w14,w15,w26,w27,w28,w29,w36,w37,w38,w39,w46,w47,w48,w49,w56,w57,w58,w59,w610,w710,w810,w910,new_w610,new_w710,new_w810,new_w910
0,0,0,0.0835298,0.882605,0.389028,-0.958269,0.402213,0.668419,-0.753664,0.873436,-0.0070735,0.410557,-0.582156,0.578907,-0.495487,-0.751069,-0.157577,0.686213,0.480643,0.795447,-0.39626,-0.594665,0.751309,0.156956,-0.0429129,-0.306412,-0.425595,0.819675,0.862161,0.416682,-0.482393,0.392917,0.459826,-0.319814,-0.609594,0.020926,0.751711,-0.319814,-0.302341
0,0,1,-0.955272,-0.890871,0.169169,0.490918,-0.640048,-0.109488,-0.510044,-0.0280467,-0.439044,0.105332,-0.0247696,0.0996176,-0.746814,-0.431952,-0.9449,0.985717,0.72667,0.0269017,0.723971,0.256093,-0.834084,-0.384019,0.40974,-0.57862,-0.558545,0.51839,-0.159183,-0.0834866,0.445673,-0.192792,-0.835956,-0.229084,-0.40241,-0.192792,-0.834641,-0.229084,2.23862
0,0,2,0.595462,-0.661143,0.648804,0.433574,-0.956287,0.923915,0.38445,-0.0258454,0.977809,0.102906,-0.219275,-0.661359,-0.368224,-0.629772,0.640228,-0.681642,0.215357,-0.769391,0.0224609,0.92164,-0.520805,-0.815042,0.0321356,-0.409105,-0.641333,-0.715813,0.238778,0.611662,0.0165074,-0.200682,-0.0476422,-0.857092,-0.181193,-0.200682,-0.957064,-0.81256,-0.183639
0,0,3,-0.723925,-0.491917,0.685387,0.673116,-0.705964,-0.934582,0.51941,0.693295,0.220503,0.416097,-0.267275,0.755835,-0.212609,0.87187,-0.0934914,0.163441,0.676383,0.633906,-0.240537,-0.191531,-0.516846,0.106942,-0.678704,0.038372,0.300988,-0.126706,0.378926,-0.602051,-0.0998665,-0.178977,-0.627124,0.152075,-0.166505,-0.178977,-0.627124,0.147622,-0.312664
0,0,4,-0.858832,-0.0747483,0.482798,-0.605871,0.985054,-0.127115,0.519118,0.658854,0.836988,-0.2596,-0.354745,0.297369,-0.23116,-0.516996,0.128075,-0.0701663,-0.335657,-0.437397,0.658702,-0.528928,0.283299,-0.773964,-0.259651,0.162314,0.694395,-0.272121,-0.294115,0.264198,0.517371,-0.613266,0.521174,0.409282,-0.203258,-0.708513,0.521174,0.166631,-0.559001
0,0,5,-0.875669,-0.92294,0.327227,0.170199,-0.176475,0.36971,0.729394,-0.730369,-0.938145,0.665304,0.114874,-0.386096,-0.778249,-0.682045,0.477,-0.468041,0.306242,0.58404,-0.423675,-0.281639,-0.435813,-0.77652,-0.367018,-0.341529,-0.202116,-0.617787,-0.144473,0.700279,0.163828,0.830453,-0.179797,0.807428,-0.592997,0.830453,0.381925,0.919173,-0.592997
0,0,6,0.949227,0.602912,-0.878179,0.711886,0.842731,0.571344,-0.44921,0.58946,-0.204395,0.993401,0.0820517,-0.549314,-0.0782,0.384269,0.12345,-0.530657,-0.0359609,-0.983515,0.556527,-0.914881,-0.800185,-0.920762,-0.922618,-0.400996,0.412579,0.328803,0.166549,-0.277749,0.913159,0.670584,-0.0783349,-0.588352,-0.194596,0.655814,-0.188196,-0.588352,-0.195423
0,0,7,-0.793358,0.981029,-0.426879,0.813112,0.502274,-0.623613,0.0234649,0.844525,-0.0933944,0.798901,-0.742535,-0.575651,0.592612,-0.932538,-0.30961,-0.0164977,-0.0194294,0.820569,-0.701703,0.169642,-0.866918,-0.325862,0.103216,-0.689035,-0.780763,-0.301802,0.68255,0.169227,0.645171,0.692118,0.262809,0.56885,-0.0964838,-0.190676,0.262809,0.395315,-0.0206773
0,0,8,-0.389326,0.0170708,0.182424,-0.280889,-0.502146,0.746611,-0.550397,-0.369795,0.74445,-0.192475,-0.270321,0.61485,0.34787,-0.999322,-0.00237946,-0.872241,0.329929,-0.64628,0.689855,0.845611,-0.779941,0.80079,0.762305,0.978538,-0.814585,-0.157608,0.585109,-0.148576,-0.752094,0.783689,0.813688,0.248172,-0.916902,0.689354,-0.741925,0.0513361,-0.916902
0,0,9,-0.248758,0.164619,0.518204,0.562549,0.0505262,0.173157,0.468851,0.879345,0.913174,-0.440886,0.712027,0.649583,-0.126092,-0.876536,-0.724625,-0.695244,-0.67783,-0.310363,-0.760327,-0.0570976,0.518937,-0.547747,0.246504,0.490875,-0.239821,0.40551,0.162888,0.0786565,-0.616601,0.233246,0.792436,0.023971,0.944577,-0.712397,-0.403733,-1.31827,-0.101484
0,0,10,-0.651183,0.71617,0.364261,0.140984,-0.310904,0.549453,-0.764256,0.37269,-0.229039,0.444157,-0.325053,0.502393,0.0880822,-0.84209,-0.0121477,0.328389,-0.48296,0.473577,-0.191523,0.615209,0.995735,-0.208564,-0.332633,0.632699,-0.865032,-0.849814,-0.32974,0.922859,0.811266,-0.479755,-0.384899,-0.0715657,-0.901113,-0.409926,0.0322528,0.187468,0.259916
0,0,11,-0.978407,-0.427634,0.901118,0.4194,-0.452407,0.0331444,0.272223,0.804362,-0.443151,-0.174994,-0.469777,-0.155317,0.497543,0.480255,-0.950376,0.960401,-0.812367,0.417824,-0.591481,-0.508668,0.428932,0.261841,-0.690675,0.857848,0.704857,-0.752118,-0.581568,0.293809,-0.499551,-0.468094,-0.324545,0.995861,0.649834,-0.468094,-0.324545,0.493933,-0.0376823
0,0,12,0.497975,-0.704069,-0.750021,-0.397079,-0.197047,0.48792,0.553385,0.728383,0.349379,0.511232,-0.782228,0.256744,-0.947079,-0.306732,-0.751916,0.623114,0.8114,0.614697,0.732882,-0.61435,-0.359347,-0.278248,-0.254755,0.666213,0.349099,0.598039,-0.553099,0.888423,0.98688,0.475121,-0.523969,0.530028,0.0351342,0.45059,-0.437631,0.0291607,-0.37854
0,0,13,-0.0974756,-0.39138,-0.382083,0.715466,-0.447896,0.35009,0.926018,0.94959,0.172254,-0.754765,0.34066,-0.511267,-0.747727,0.873442,-0.582926,-0.365207,0.513157,-0.818015,-0.522815,-0.272337,-0.0352182,0.922285,0.794036,0.649051,-0.657333,-0.73897,-0.44249,-0.286746,-0.66719,0.43243,-0.578125,-0.659503,-0.95031,0.43243,-0.172117,-0.0917641,-0.247305
0,0,14,-0.811819,0.562723,0.902958,-0.310854,-0.740441,0.282952,-0.438969,0.226609,-0.400443,0.316913,0.664376,-0.393035,0.396922,0.267023,0.647702,-0.209074,0.0897932,0.234992,-0.523168,-0.144642,-0.568173,-0.329376,0.27206,-0.859075,-0.225791,-0.0368884,-0.0781758,-0.525626,-0.804163,-0.0718569,0.914322,-0.243976,0.915093,-0.0718569,0.930513,-0.243976,0.915573
0,0,15,0.764632,-0.835155,-0.771159,0.191384,-0.223771,-0.454214,0.610229,-0.664212,0.6965,0.911172,0.666992,-0.708598,-0.240845,0.0361253,0.323478,-0.714323,-0.881575,0.608494,-0.671093,-0.667574,0.507277,0.586039,-0.115176,0.151082,0.1394,0.961969,-0.437823,-0.287712,-0.886471,-0.566884,-0.264786,0.777676,0.0643884,-0.677162,-0.264786,0.306964,0.0643884
0,0,16,0.988478,0.498545,-0.395417,-0.213014,0.693802,0.531515,0.000280628,0.244342,-0.714684,0.759955,0.342336,-0.828385,0.274678,-0.685975,-0.510505,0.476678,0.79451,-0.836278,-0.342541,-0.267277,0.634921,-0.687421,0.400787,0.718178,0.740132,-0.0292555,0.925064,-0.200311,-0.398634,-0.342394,-0.322822,-0.771446,-0.441134,-0.24981,0.235213,-0.00476839,1.88542
0,0,17,0.601743,0.601564,-0.953441,0.105594,0.750105,0.325294,-0.289807,-0.972972,0.46601,-0.800851,0.309578,-0.78038,0.676974,0.31366,-0.627685,0.817971,0.527306,-0.23513,-0.97356,-0.359537,-0.929922,0.347069,0.440607,0.794977,0.100528,0.997584,-0.30863,0.970053,0.141784,-0.0158752,-0.612949,0.692144,0.368116,-0.678969,-0.612949,0.499801,0.368116
0,0,18,-0.844626,0.742262,0.622018,0.606587,0.858148,-0.0496737,0.479588,-0.698481,0.419996,0.511981,-0.617224,-0.540625,-0.487697,-0.279275,0.0273094,0.853367,-0.70624,-0.1772,-0.896932,-0.749627,0.513179,-0.936348,-0.228231,0.949511,-0.819307,0.29964,-0.0121375,-0.314139,0.23391,0.0209895,-0.88932,-0.98873,0.425764,0.171758,-0.88932,-1.39552,0.425764
0,0,19,-0.583368,-0.748666,0.634305,-0.962632,-0.523562,0.115217,0.836062,0.538701,-0.778305,0.94548,0.218134,0.638136,-0.936521,-0.750518,-0.582659,0.804177,0.258905,0.409953,-0.723854,0.752836,-0.964531,0.240088,-0.980675,0.659885,0.290803,0.476442,-0.0945863,0.833362,-0.945006,-0.999824,-0.782724,0.340323,-0.635888,-0.999824,-0.738854,0.95616,-0.17959
0,0,20,0.444056,0.0763755,0.742982,0.689351,-0.504941,0.638575,0.138153,0.487263,0.609841,0.316347,0.795908,0.815855,-0.78695,0.820946,-0.369722,-0.978826,-0.992,0.799011,0.578432,0.242793,-0.295494,-0.555179,-0.390884,-0.502595,0.106346,-0.165434,-0.088208,-0.520955,-0.55292,0.394781,0.899551,0.334272,0.344574,0.253192,-1.22913,0.334272,0.344574
0,0,21,-0.226549,0.92507,-0.437806,-0.36151,0.934437,-0.946494,-0.756609,-0.622765,-0.323793,0.327662,0.938904,0.111077,-0.334799,-0.150724,0.670573,0.971803,0.121673,-0.135189,0.959405,-0.228981,-0.040611,0.156377,0.389311,0.662592,0.318904,0.387207,0.407581,-0.4621,-0.894216,-0.636336,0.175565,-0.903434,-0.948966,0.281598,0.251249,-0.903434,-0.948966
0,0,22,0.62515,0.548254,0.222359,0.764656,-0.348567,-0.554285,-0.799322,-0.843513,0.637934,0.786985,-0.974512,-0.574302,-0.488861,0.724254,-0.610889,-0.170565,0.399769,0.00430886,0.854715,0.799721,-0.625096,0.396083,0.680094,-0.71487,-0.571257,-0.111116,-0.211219,-0.0993715,0.610304,-0.612881,0.0352943,0.223131,0.197777,-1.00444,-1.43086,0.223131,0.197777
0,0,23,-0.698729,0.710083,-0.539263,-0.267843,-0.514731,0.669003,-0.537103,0.558532,-0.201304,-0.556049,-0.156597,0.208734,-0.460191,0.305441,0.176831,-0.423931,0.24224,0.292706,0.757678,-0.91718,-0.884045,0.500314,-0.104993,-0.724676,-0.491502,-0.177642,-0.97928,-0.934047,-0.10634,0.371599,0.769132,0.165761,0.942621,0.371599,0.170343,0.165761,0.946714
0,0,24,0.122413,0.464539,0.610891,-0.0221871,-0.70749,0.519987,0.0448299,-0.817694,0.633051,0.699769,0.827715,-0.941985,-0.567763,0.219195,0.806381,0.88167,0.431614,0.199923,-0.339498,-0.799408,0.711251,-0.0676004,-0.3898,0.662931,-0.404927,0.194983,0.338543,-0.0393537,-0.140793,-0.489942,0.85343,-0.383238,-0.838485,-0.489942,-0.575669,-0.730582,-0.618959
0,0,25,-0.5463,0.684685,-0.500721,-0.219655,0.336418,0.535712,-0.158256,0.570127,0.426527,0.141958,0.574322,-0.899166,0.587308,-0.261054,0.195671,-0.633608,-0.116667,0.986757,-0.444923,-0.518926,0.103597,0.846128,-0.00736928,0.259211,-0.882333,0.254894,-0.954939,-0.112287,-0.402922,-0.683716,-0.528256,-0.650043,-0.599135,-0.259225,-0.367813,-0.650043,-0.20808
0,0,26,-0.70212,-0.957044,0.866922,0.00798651,-0.472471,0.3244,-0.0784592,-0.763539,-0.769198,-0.121453,-0.669352,-0.262508,0.165197,-0.936227,-0.429313,-0.542253,0.601254,-0.957535,0.348768,0.774368,-0.663202,-0.929743,-0.111613,-0.432369,0.916388,0.724001,-0.73271,-0.255604,-0.618314,0.625462,0.104092,-0.103538,-0.506912,0.625462,1.19913,-0.103538,-0.215662
0,0,27,0.79327,-0.520803,-0.300649,-0.168296,0.956388,-0.514935,-0.119131,-0.39618,0.883516,-0.197271,-0.311419,0.187572,-0.354692,-0.140136,-0.416353,-0.698332,-0.899579,0.898175,0.0504333,0.659353,0.922642,0.268924,0.393717,0.762637,-0.0562276,-0.788232,0.563832,-0.00972141,0.934249,0.350434,-0.549176,0.500554,0.950327,-1.13677,-0.549176,0.500554,0.950327
0,0,28,-0.329278,0.172023,0.317605,-0.847727,-0.284617,-0.309147,-0.242478,0.710637,0.627101,-0.662478,-0.607816,-0.882751,0.0293726,-0.573667,0.944265,-0.654713,-0.779223,-0.707122,0.0471864,0.507433,0.604253,-0.208186,-0.969926,-0.321168,-0.127923,-0.0188147,-0.173488,0.267012,-0.998514,-0.858678,0.779691,0.00156745,-0.0486399,-0.858678,0.779691,0.00156745,-0.748552
0,0,29,-0.598458,0.506959,-0.658278,-0.858693,-0.842101,-0.933721,0.409301,0.519152,-0.863571,-0.549055,-0.548493,0.774376,0.504795,-0.217261,-0.42366,-0.211101,-0.914964,0.00238216,0.262407,-0.290776,-0.913208,0.529953,-0.0791031,-0.507322,-0.751134,-0.669679,0.308967,-0.932543,-0.589636,-0.891464,0.877313,-0.862227,-0.700509,-0.891464,0.877313,2.0238,0.408801
0,0,30,0.574604,-0.976121,-0.947205,0.0131549,0.377694,0.168568,0.301174,0.412554,-0.927506,-0.743009,-0.606246,0.0590502,0.999271,-0.440237,0.0639617,-0.132647,0.888741,0.303273,0.242035,-0.770326,0.0513441,-0.808852,-0.927598,0.423032,0.461742,0.8704,-0.751633,-0.737809,0.845266,0.27523,0.55812,-0.0245242,0.905266,0.129849,0.561613,-0.0204228,0.800995
0,0,31,0.541808,0.985172,0.782356,-0.160254,0.43942,0.482177,0.974738,0.0534959,0.656022,0.319824,0.34392,-0.358773,-0.206424,0.939604,-0.963744,0.00982996,0.847244,-0.0990313,0.388011,0.112591,-0.715921,0.586346,0.500184,-0.352875,-0.704417,-0.23685,0.51599,-0.7329,0.859628,0.969379,-0.281009,-0.9614,0.684487,0.546166,-0.740124,-1.22904,0.684487
0,0,32,-0.813704,-0.220337,0.194449,-0.898669,0.803527,0.990184,-0.819888,-0.738254,-0.896804,0.732984,-0.1967,0.379365,-0.343485,-0.469778,0.131582,-0.338606,0.120735,-0.149966,-0.338082,-0.97175,0.966392,0.588713,0.0213007,-0.58721,-0.243376,0.629565,0.306931,0.203198,0.0825857,-0.83552,0.818964,-0.237585,-0.673579,-0.292784,1.18582,-0.237585,-0.673579
0,0,33,0.472786,-0.733288,-0.412972,-0.383511,0.572076,-0.0567734,0.162696,0.263078,0.910412,0.147679,0.934207,-0.944869,0.996019,0.499187,-0.781373,-0.538926,-0.561947,0.0592351,0.692778,0.806341,0.399867,0.587658,0.970618,-0.494782,-0.916815,-0.833025,0.565913,-0.432477,0.829708,-0.81132,0.873683,-0.620332,0.530429,-1.00954,0.898169,-0.620332,-0.499168
0,0,34,0.248373,-0.715213,0.0458232,0.541336,-0.953985,-0.341114,0.97379,0.000213585,-0.234713,-0.238281,0.989791,0.764337,-0.135539,-0.577643,-0.682618,0.0402488,-0.827403,0.164513,-0.739247,-0.541359,-0.0166837,-0.3976,-0.462493,0.0521966,0.564094,0.0167197,-0.942932,-0.100694,-0.719389,-0.264747,-0.28799,-0.273922,-0.169771,-0.264747,-0.28799,0.481602,0.121022
0,0,35,0.976207,-0.192,0.889978,0.554213,0.597638,0.904076,0.100297,-0.71923,0.993095,0.501546,0.793821,-0.267997,-0.778359,0.781146,0.404404,-0.942801,0.32001,0.730826,-0.600238,-0.229352,-0.823714,-0.688404,0.633511,-0.584944,0.0813383,-0.97709,-0.654182,-0.0614432,0.082814,0.0482325,-0.470729,0.134148,-0.366408,-0.263963,-0.936463,0.134148,-0.366408
0,0,36,0.614156,0.486292,0.348994,0.808043,-0.20448,0.636618,-0.332657,-0.688553,-0.876356,0.715311,-0.293031,-0.116018,-0.682207,0.962368,-0.661955,0.814797,-0.336139,0.887416,0.898953,-0.855883,0.245054,0.336156,-0.726367,-0.797437,-0.182097,0.778524,-0.537549,-0.64034,0.157075,-0.494795,-0.849195,0.35584,0.461447,0.887233,-0.63887,0.376786,0.461447
0,0,37,-0.0156508,-0.989444,0.516527,0.0711365,-0.518362,0.0833407,-0.133274,0.956738,-0.111901,0.374989,0.820186,0.0212221,0.509568,0.974782,0.466517,-0.828266,-0.341485,-0.381534,0.0900229,0.8974,0.0155801,0.703361,-0.230249,0.810172,0.823476,0.745595,0.598745,-0.428724,-0.123691,-0.000213568,0.128612,-0.67909,0.421109,-0.224048,-0.0561178,-0.586962,0.240692
0,0,38,-0.865827,0.0932718,-0.671252,-0.828751,0.773108,0.0541599,0.592473,-0.861473,-0.541858,-0.180987,0.640482,0.658907,0.180311,0.299818,0.0524295,0.187534,-0.304104,0.758741,-0.861951,0.4566,-0.982829,0.60308,0.270684,-0.89637,0.218511,-0.344842,-0.325124,0.809635,0.00142219,-0.831869,0.828663,0.922447,0.369503,-0.664194,0.91402,1.01064,0.369503
0,0,39,-0.706912,0.926475,-0.0874774,-0.738698,0.72766,0.826478,-0.688961,0.94237,-0.551047,-0.601978,-0.673389,-0.389685,0.0231019,0.410062,0.589915,-0.578059,0.896277,0.485348,0.970976,-0.335885,0.0381674,-0.0698893,-0.87589,-0.383072,0.503295,0.810082,0.262743,0.628634,0.0447923,-0.967998,-0.38634,-0.547385,-0.205304,-286919,231162,-0.547385,70798.8
0,0,40,-0.942664,-0.270339,0.948795,-0.970221,0.782967,0.170976,0.329963,-0.602975,0.381839,0.0368952,-0.597023,-0.967998,-0.941622,0.370685,-0.291257,0.17366,0.554734,-0.438269,0.674635,0.340546,0.227703,-0.899249,-0.445577,-0.542597,-0.536164,0.985601,0.903597,-0.85626,0.411767,0.634981,-0.339105,-0.0749347,-0.824111,-2.39047,-0.747563,-1.07565,-0.824111
0,0,41,0.317612,-0.464832,0.335828,0.669732,-0.895381,0.328688,-0.150187,0.288173,0.624978,-0.241047,-0.775996,-0.821807,0.406404,0.320129,0.595828,-0.177374,0.115771,-0.522166,0.248785,-0.234451,0.341038,-0.853227,0.838263,-0.158051,-0.206732,0.27097,-0.668815,0.464448,-0.15368,-0.201728,0.0102421,0.226498,0.577706,-0.201728,-0.506397,-1.65312,-0.658136
0,0,42,-0.118072,-0.622957,-0.220232,-0.988405,0.305187,-0.622888,-0.328915,0.247089,-0.429764,0.721052,0.72237,-0.290577,-0.742516,0.649724,-0.88432,-0.311502,-0.972442,-0.92457,0.036456,-0.979989,-0.516996,-0.300889,-0.270069,-0.0234104,-0.0796961,0.765622,-0.453212,0.862109,-0.0198346,0.588663,-0.324608,0.310939,0.251708,2.40196,-0.324608,0.310939,1.366
0,0,43,0.118968,0.711899,-0.0703755,-0.789769,-0.979929,0.00901788,-0.0783347,0.502213,0.154182,0.109986,-0.462184,0.478483,0.428259,0.824241,-0.0301572,-0.15371,-0.717435,0.0655268,0.0355463,-0.389421,0.306847,0.883582,0.515969,0.931298,-0.695088,-0.619682,-0.342689,0.209661,0.0980028,-0.188603,0.426669,-0.487677,0.796887,-0.188603,0.168673,-0.546128,-0.214731
0,0,44,0.063182,-0.646959,0.0241436,-0.982492,-0.208092,0.433342,0.400317,0.534633,-0.209127,-0.685582,-0.214894,0.179162,-0.13645,0.493998,0.805221,0.175004,0.667357,-0.828595,-0.468128,-0.177957,0.352683,0.835241,-0.639741,0.0181334,-0.350029,0.231223,0.112368,-0.97342,-0.180024,-0.991564,0.931584,-0.7422,-0.930239,-1.11556,0.905192,-0.0946945,-0.534506
0,0,45,-0.240896,-0.150123,-0.239838,-0.857482,-0.324652,-0.624157,0.244553,0.49097,0.375688,-0.81246,0.510991,0.513189,0.202085,-0.904063,-0.518592,-0.580517,-0.949612,-0.533934,0.666841,0.723618,0.811358,0.0533665,0.983519,0.927129,0.839574,0.156031,0.694999,0.867297,0.810211,0.180895,-0.641253,0.783303,-0.95559,0.180895,-0.641253,0.695175,-0.955545
0,0,46,0.0524508,-0.384418,0.578774,-0.921196,-0.512722,0.597712,0.756692,-0.779932,0.985795,0.570399,0.468804,-0.0105047,0.685715,0.733927,0.110409,0.873201,0.0532923,0.90993,-0.114215,-0.693167,-0.240021,0.21092,-0.658369,0.889918,0.298195,0.390156,0.435351,0.598821,0.59951,0.997111,-0.446761,-0.443165,0.602664,0.853979,-0.0602508,1.03075,0.602664
0,0,47,0.677888,0.492593,0.14219,0.49258,-0.950257,-0.944539,0.934921,0.0324072,0.703961,0.00156191,0.882031,0.187324,0.630585,0.875017,-0.430577,-0.292874,0.239536,0.901537,0.913806,-0.459218,0.56324,0.81438,-0.345555,0.552632,0.242424,0.816724,-0.0393538,0.296159,0.840559,-0.293643,-0.949374,0.186544,-0.581702,0.252757,-0.949374,-0.772217,-0.312791
0,0,48,0.341379,-0.216698,-0.428541,0.718953,-0.91117,0.152496,0.617158,-0.374063,-0.0601452,-0.297481,-0.0813883,-0.332631,0.74942,-0.539083,-0.954362,0.208558,0.93939,-0.550348,0.168925,0.662651,-0.905247,0.586985,-0.392471,0.65347,0.238872,0.177009,0.543384,0.781816,-0.34984,-0.33496,0.967006,-0.969268,-0.488743,-0.33496,-0.306852,0.258464,-0.0730139
0,0,49,0.752575,0.272709,-0.135549,-0.0171823,-0.0157393,-0.751198,-0.446077,0.883923,-0.109171,0.889731,0.447937,0.25511,0.173414,-0.841691,-0.218313,-0.683199,0.46557,-0.897464,0.96721,0.457918,-0.585475,-0.893774,0.181741,0.194535,0.321204,-0.0665699,-0.203776,-0.202205,0.242943,-0.734454,-0.867253,0.414609,0.959516,-0.734454,-0.867253,0.414609,0.120762
0,0,50,-0.81471,-0.533202,-0.270904,0.374371,0.609947,-0.248457,-0.210493,-0.226219,0.128464,-0.266245,0.696779,0.187096,0.505549,-0.890157,-0.00837227,-0.724424,-0.143612,0.538806,0.946648,-0.411743,-0.708188,-0.349975,-0.48601,0.35581,0.221409,-0.815633,-0.2283,-0.358105,0.751658,-0.00594335,0.326138,-0.366195,0.294655,-0.245606,0.326138,-0.366195,-0.471114
0,0,51,0.17674,-0.194202,-0.486297,0.644359,-0.358244,0.823231,0.764865,0.960653,-0.995083,0.657605,0.686066,0.832656,0.321817,0.520414,0.00721899,0.621451,0.0705456,-0.213111,0.444759,0.105238,-0.700322,-0.83435,0.715633,-0.757437,-0.130142,0.140735,0.934374,0.32588,0.354262,-0.282798,-0.532929,0.932747,0.170997,-5.92982e+15,-1.07117e+22,-1.07117e+22,-1.07117e+22
0,0,52,0.140119,-0.817293,-0.715575,0.382015,-0.0471522,0.937107,-0.400463,-0.498836,-0.374392,0.850019,0.67049,-0.717995,0.759295,0.768133,-0.660835,-0.942754,0.804407,0.470682,0.21451,-0.251449,0.804853,-0.0960717,0.261848,0.867579,-0.0148201,0.624965,-0.533243,-0.286908,0.969441,-0.636697,0.443458,0.780748,-0.633292,0.222914,0.400626,0.780748,0.151598
0,0,53,0.998887,-0.0348467,-0.185575,0.288326,0.258644,0.627235,0.258441,-0.639759,-0.578334,0.643886,-0.426064,-0.763855,-0.284778,0.120234,-0.430143,0.48141,-0.878696,-0.0977646,0.835318,0.246685,-0.833512,-0.0440929,0.768843,0.601774,-0.976941,0.102353,0.582502,-0.598604,0.392536,-0.20124,0.408415,0.0626408,-0.0196303,0.122219,0.208685,0.650851,-0.0196303
0,0,54,-0.46115,0.34694,-0.823866,0.127517,0.238135,0.345685,-0.4782,-0.734701,-0.384576,-0.510801,-0.645706,-0.679241,-0.318328,-0.0881276,0.3919,-0.0328251,-0.134737,0.992014,0.469223,-0.485963,0.113491,0.189229,-0.474885,-0.103246,0.038298,0.875623,-0.0169316,-0.854125,-0.128791,-0.136937,-0.581939,-0.198084,-0.478725,0.388219,-0.00377854,-0.198084,-0.478725
0,0,55,-0.104842,-0.86,-0.37375,-0.190103,0.364176,0.681778,0.586308,-0.775187,0.665165,-0.0296423,0.416044,-0.0262348,0.809438,0.0465692,-0.692245,0.468857,-0.941598,-0.437408,0.61278,0.976882,-0.765067,-0.495597,0.412196,-0.405647,-0.991758,0.853236,-0.565687,0.601272,0.733824,0.700276,-0.0148714,-0.18409,0.312077,0.247358,-0.32161,-0.72002,0.312077
0,0,56,-0.491976,-0.603122,0.618137,-0.0311686,0.964287,-0.934394,0.945629,-0.363883,-0.796425,0.805166,-0.637212,-0.612237,-0.709227,0.706588,-0.370195,0.275987,0.86669,-0.296803,-0.52872,0.445417,0.228955,0.537575,0.759136,0.594633,0.307919,0.191415,-0.428,-0.921446,-0.554948,-0.0685629,0.00948169,0.629608,0.274947,0.554115,0.00948169,1.24066,0.274947
0,0,57,0.0385006,0.815155,-0.436023,-0.20161,-0.485135,0.854775,-0.489597,0.396216,0.659966,0.790289,-0.32721,0.0131111,-0.3145,-0.367683,0.706574,0.411253,0.371786,0.382506,-0.27777,0.0773301,-0.402792,-0.864897,-0.918196,0.135103,0.70956,0.527637,-0.35513,0.891496,0.106677,0.0539991,0.819249,0.562844,-0.462061,0.0539991,-0.343921,0.562844,-0.65306
0,0,58,0.688976,0.988731,-0.983436,0.678348,-0.60423,-0.603647,0.594494,0.363774,0.206183,0.155414,0.57318,0.460678,0.303123,0.97864,0.502984,0.304194,0.90236,-0.29551,0.380372,-0.473943,-0.491065,-0.0246162,-0.547739,0.378047,0.566412,0.270479,0.401219,0.978394,-0.106827,-0.200198,0.832197,0.0455375,0.458983,-0.41595,0.110658,-0.407255,0.304579
0,0,59,0.436857,0.575322,-0.20936,0.296077,-0.076402,0.87919,0.141832,-0.807102,-0.608164,-0.945758,0.170381,-0.305666,-0.13925,0.0606775,0.683423,0.57194,-0.937525,-0.332965,-0.11756,0.945842,-0.679436,-0.747016,-0.0890392,0.183944,0.682612,-0.122385,0.110405,0.305174,-0.649451,0.982769,0.739205,-0.110104,-0.801813,0.982769,0.918407,0.0399965,-0.801813
0,0,60,0.370016,-0.275041,0.94842,-0.0705301,0.559394,-0.9045,0.375333,-0.300138,-0.385159,0.717258,0.733136,-0.760615,0.296961,-0.189508,0.990433,-0.0207991,0.403567,-0.270177,-0.558239,-0.107654,-0.0432406,-0.336885,-0.794072,0.912435,-0.783228,-0.351134,-0.921295,0.190862,0.917988,-0.36891,0.228244,-0.106294,-0.146263,-0.361988,0.228244,0.465387,0.223452
0,0,61,-0.494164,-0.57509,-0.445717,0.629298,-0.758182,0.295556,0.083517,0.639224,0.849406,-0.0804959,0.894916,0.706805,0.0569951,-0.182602,-0.0483035,-0.730743,0.735472,0.787931,-0.314005,-0.847816,-0.922068,-0.128788,0.297949,0.01447,0.20954,-0.401959,0.128816,0.82705,-0.180636,0.104574,-0.151531,0.766965,-0.391468,0.104574,-0.91385,-0.0283843,-0.926801
0,0,62,-0.152354,-0.357547,-0.755048,0.269193,0.653193,0.908007,-0.999672,0.457114,0.600399,0.987828,-0.437965,0.491695,0.354654,-0.921037,0.751825,0.733964,-0.240122,0.423409,-0.694665,0.633267,-0.318862,0.707436,-0.134673,-0.173079,0.818541,0.515389,0.760752,0.0114715,-0.41308,-0.581835,-0.231764,0.479572,-0.247667,-0.65851,-0.155832,0.479572,-0.246807
0,0,63,0.99157,0.208048,0.177922,-0.762895,-0.908157,0.0847546,0.862778,-0.0260181,0.944574,-0.428597,-0.337856,-0.14735,0.444133,0.00204425,0.262091,0.969156,0.596456,-0.630543,-0.548232,-0.806066,-0.470719,-0.425913,0.232493,0.778236,-0.373059,-0.569927,-0.861977,0.0766045,0.645573,0.818772,0.505367,-0.227368,-0.981237,0.818772,0.429587,-0.64849,-1.12001
0,0,64,-0.0738478,0.975197,0.0059364,-0.402985,-0.0926485,-0.300142,0.0247833,-0.00556659,0.70835,-0.332697,0.172284,-0.78031,-0.186916,-0.164384,-0.291549,-0.309397,0.547779,0.457576,0.0934945,0.471862,0.946334,-0.140592,0.592588,0.736956,0.459117,0.714459,0.555967,0.319732,-0.179321,-0.470499,-0.227749,0.508388,0.937769,-0.460098,-0.335101,0.492802,0.968138
0,0,65,-0.92096,-0.872921,0.368875,0.123817,0.66201,-0.369462,0.610677,-0.0698525,-0.279769,-0.252636,-0.195464,0.759495,0.679523,0.827231,-0.501227,-0.77697,-0.405709,-0.698317,-0.976635,0.275088,-0.87037,0.797386,-0.273018,0.3445,-0.589487,0.795515,-0.0434158,0.373679,-0.752695,0.201874,-0.471286,0.895957,0.173656,-0.201219,-0.471286,0.480987,0.173656
0,0,66,0.626003,0.971342,0.814713,0.198262,-0.610173,0.643949,-0.130481,0.345208,-0.448399,0.647473,-0.78865,0.799255,-0.0723699,-0.999058,-0.510021,0.705386,-0.932638,-0.935964,-0.784725,0.0126303,0.803996,-0.264235,0.017104,0.970042,-0.0632996,-0.915541,0.864354,0.210484,0.743221,0.804772,-0.422414,-0.31252,-0.208127,0.804772,-0.340201,0.444745,0.93249
0,0,67,-0.280534,-0.222206,0.208876,-0.362016,0.693694,0.241589,0.878539,-0.157022,-0.334276,0.622744,-0.253045,0.689589,-0.757509,0.105806,-0.497602,0.52629,-0.776841,-0.0918,-0.882553,-0.577059,0.868027,-0.761549,0.023938,0.900111,0.827345,-0.906159,-0.266238,-0.916917,-0.842453,-0.659296,-0.511422,-0.245932,-0.119913,0.115971,-0.234535,0.829951,-0.155121
0,0,68,-0.139548,-0.194275,-0.31027,0.00583372,0.00826636,0.447308,-0.1265,0.652869,0.55988,0.6328,0.994436,-0.089273,0.410595,0.0393735,-0.419885,-0.906179,0.446948,-0.464591,0.0661274,-0.134047,-0.235725,0.0469884,0.712821,0.522249,-0.176456,-0.340514,0.508301,-0.901665,0.17623,0.0447027,0.438935,-0.651607,-0.431655,0.0577735,0.246936,-0.651607,-0.660993
0,0,69,-0.678439,0.31318,-0.706552,0.936822,0.986512,-0.153088,0.399281,0.916646,-0.686952,-0.324694,0.958058,0.770802,0.0889087,0.203673,-0.395573,0.667632,-0.889342,0.385669,0.0606344,0.261151,0.12979,-0.84099,-0.15043,0.138752,-0.718401,-0.643119,-0.872699,-0.198919,0.200671,-0.376801,-0.206585,0.00606674,0.517532,-0.157181,-0.206585,0.21062,0.404499
0,0,70,0.419936,-0.912354,0.74521,0.137121,0.8524,0.813855,0.564374,0.0930771,0.562641,0.176466,0.29979,0.139912,0.101108,0.147851,0.209255,0.770621,-0.456085,-0.00189143,-0.522489,0.164861,-0.595902,-0.422795,0.880746,-0.325092,-0.791658,-0.957647,0.746492,0.785037,0.400013,0.103492,0.909097,0.743306,0.604936,-0.320365,-0.224238,-0.250011,0.604936
0,0,71,-0.806289,0.907988,0.581863,-0.190929,0.14893,-0.0216543,-0.94863,0.326303,-0.435421,-0.359151,-0.171924,-0.636794,0.498207,-0.264316,-0.417654,0.484738,-0.483853,0.762683,0.598797,-0.579492,0.105151,-0.0327181,-0.90186,-0.390099,0.561124,0.209439,0.13552,0.742299,-0.187942,-0.819967,-0.250524,0.651988,0.869044,-0.478025,0.241616,0.651988,0.532872
0,0,72,-0.0700805,0.0555129,-0.0102576,0.408612,-0.734255,-0.333867,0.0888153,-0.18644,0.935753,0.688065,-0.37023,0.295637,-0.835587,-0.191318,-0.179027,0.156464,-0.0435663,-0.4109,-0.00687106,-0.930875,0.649001,-0.0515677,-0.11733,-0.138367,0.13234,-0.157577,-0.478118,-0.189456,-0.808934,0.472535,0.731362,0.22865,0.247085,0.472535,0.731362,-0.25364,0.247085
0,0,73,0.884163,-0.0682057,-0.297671,0.310542,0.00961717,0.534446,0.777846,-0.483978,-0.493631,0.956931,0.906402,0.16069,0.328425,-0.387634,-0.196857,0.76311,0.459885,0.713905,-0.876258,0.437832,-0.423001,-0.856176,-0.79177,-0.375643,-0.299242,-0.945184,0.847719,0.882129,-0.503081,0.423533,-0.790718,-0.673085,0.0178389,0.426537,-0.312201,0.548639,0.0178389
0,0,74,-0.782371,0.32144,-0.845223,-0.741066,-0.491394,0.849587,0.675349,0.719598,0.525665,0.108563,-0.163974,-0.646731,0.178043,-0.615994,0.872272,0.946012,-0.814248,-0.625994,0.175874,0.510805,0.727336,0.644712,-0.648043,-0.434236,0.140606,0.209057,0.344384,-0.61821,0.548114,0.798539,-0.186986,0.35963,0.179027,0.798539,-0.569833,0.105618,-0.114876
0,0,75,0.918033,0.609008,-0.242396,0.145928,-0.925402,0.787689,-0.729091,0.699834,-0.375056,-0.302242,0.155682,0.0158441,0.2513,-0.967423,-0.298588,-0.139642,0.21964,-0.777992,-0.681188,-0.602491,-0.184308,0.196902,0.132532,-0.703249,0.312476,0.66346,0.71858,-0.421254,-0.427802,0.403689,-0.792728,0.489411,-0.805783,0.403689,-0.0238203,0.489411,0.460999
0,0,76,-0.604389,-0.301755,0.123306,0.332073,-0.765327,0.292687,-0.17316,-0.814181,-0.574832,-0.311672,0.755132,-0.76365,-0.124685,-0.590715,-0.175934,0.81285,-0.247136,-0.755475,-0.253151,-0.195446,-0.900712,0.810614,-0.465975,-0.749403,0.289616,0.0395896,0.0184941,-0.574978,0.378373,0.286117,-0.43887,-0.781432,0.363499,0.286117,1.98149,-0.781432,0.363499
0,0,77,-0.87788,0.571218,0.112752,0.0259475,-0.627037,-0.993685,0.440763,-0.39858,-0.768366,-0.857731,0.276962,0.703822,-0.89742,0.291309,-0.947636,-0.80212,-0.840288,0.263432,0.876508,-0.955114,-0.653359,-0.614489,0.846183,0.197293,-0.974607,-0.697306,0.226799,0.852875,0.804967,-0.824358,0.269644,0.253425,0.788522,-0.824358,3.60391,0.84843,0.496134
0,0,78,-0.978916,0.437706,0.351358,0.96027,0.0217154,0.410525,-0.744633,-0.00838503,0.304562,-0.850627,0.646367,-0.457552,-0.115835,-0.188104,0.71871,0.946117,-0.46307,0.972055,0.85947,0.151242,-0.702997,0.732424,0.243318,-0.0396597,0.32594,-0.225784,-0.0899497,0.0642335,-0.300571,-0.956174,-0.894543,0.119566,-0.758492,-0.281303,-0.26159,0.119566,-0.758492
0,0,79,0.652364,-0.456766,-0.691698,-0.780659,0.046527,-0.614115,0.955362,0.0192628,0.64131,0.942751,-0.168273,-0.0339312,0.0421108,-0.408335,0.72193,0.248124,0.707554,-0.352129,-0.666685,0.503711,-0.371102,0.137884,-0.529201,-0.34155,-0.878308,-0.246506,0.0295846,0.549175,0.183844,-0.571178,0.202695,0.742721,-0.751082,-0.667271,0.279953,-0.591771,-0.109687
0,0,80,-0.845751,-0.716453,-0.407713,0.344812,0.699726,0.886489,0.843503,-0.507155,0.393653,-0.179029,-0.707234,0.675194,0.47015,-0.0912368,-0.564236,-0.397352,0.914791,-0.110405,0.402967,0.165057,-0.399207,0.726347,0.797623,0.990617,0.265607,-0.339683,-0.16666,-0.340882,0.240998,-0.0461083,-0.488598,0.427546,0.172329,-0.845076,-1.52688,-0.539874,0.172329
0,0,81,-0.328669,-0.344015,-0.608847,0.00272048,-0.466049,0.901929,-0.0901722,-0.0330528,0.712652,0.92259,0.724143,-0.461094,-0.627893,0.0578557,-0.4813,-0.688062,-0.108221,0.78323,0.867197,0.890837,-0.447841,0.323748,0.17322,0.129047,0.906636,-0.782443,-0.360664,0.671246,-0.912744,-0.362561,-0.142957,-0.256556,0.0203064,-0.362561,-0.793171,-0.510405,0.0203064
0,0,82,0.160108,0.678214,-0.71119,-0.339733,-0.956689,0.356567,-0.201407,0.655688,0.989044,0.65707,0.517502,-0.201919,0.0282009,-0.145683,0.228611,0.936639,0.824806,0.0433872,0.420127,-0.311379,0.129331,-0.825322,0.432498,0.725353,0.00690874,-0.546999,0.534089,0.748656,-0.355249,0.909908,-0.64009,0.362433,-0.051316,0.909908,-0.911649,0.503658,-0.740829
0,0,83,0.610189,-0.316292,0.232721,0.0925592,0.722582,-0.554911,0.706605,0.0916997,0.157614,0.0989722,0.112605,-0.503451,0.426713,-0.656145,0.851721,-0.0375538,0.162397,0.0233102,-0.498926,0.0980921,-0.501655,-0.763374,0.190432,-0.192964,0.57513,-0.365786,0.554611,-0.43688,-0.855262,0.108647,0.0172175,0.351299,-0.473666,-0.211027,0.314168,-0.0468178,-0.563449
0,0,84,-0.494613,-0.467302,0.666463,-0.608491,-0.943554,-0.390628,0.723125,0.728972,-0.289034,-0.502186,-0.6214,0.221905,0.453781,-0.568915,-0.170672,-0.0947077,-0.00984363,-0.289198,0.854575,-0.473196,-0.254793,-0.479321,0.00790586,-0.0727811,-0.724139,0.772385,-0.39941,0.711645,-0.384925,0.786358,-0.802175,-0.583704,-0.0630028,0.786358,-0.802175,0.356254,0.417321
0,0,85,0.110589,0.00976715,0.250057,-0.55436,-0.492592,-0.345215,-0.229559,0.651409,-0.38484,0.936877,0.606282,0.112355,-0.0402149,0.550226,-0.767686,0.759837,-0.0045237,-0.649784,0.85133,0.173849,-0.922666,0.541083,0.993159,0.899891,0.232444,-0.305316,0.0858209,0.134981,-0.646908,-0.294898,-0.0737275,0.0145221,-0.196646,-0.294898,-0.0737275,0.322486,0.492051
0,0,86,0.138675,-0.145997,-0.666854,-0.442245,0.725025,0.735867,-0.15984,0.843768,0.606129,0.225654,0.0146758,0.566736,0.964842,0.526741,0.837551,-0.762805,-0.150131,-0.735991,-0.917311,-0.338178,0.275363,0.488815,-0.420075,-0.261389,0.267098,0.578325,-0.92244,0.697234,-0.878506,-0.10727,-0.389021,-0.520823,-0.396668,-0.318538,-0.306099,-0.520823,-0.314953
0,0,87,0.280121,0.822966,-0.961161,0.292321,-0.598043,0.0463472,0.0959978,-0.545117,0.8105,0.0977455,0.935099,-0.667833,-0.0319318,0.0383783,0.00667516,-0.978481,-0.0297325,-0.330693,0.19866,-0.0408736,0.247982,0.902895,0.714059,-0.113959,-0.418528,-0.431204,-0.609177,-0.705222,-0.321918,0.80179,0.538375,0.43333,-0.516735,0.80179,-0.433238,0.43333,-0.516735
0,0,88,-0.900119,-0.212199,0.561591,-0.224082,-0.688415,0.702431,0.343856,0.35547,-0.818483,-0.940872,0.114569,0.299236,0.17298,0.212586,0.704095,0.66261,0.841991,0.918406,-0.928549,-0.825608,-0.358481,-0.775021,0.755857,0.906359,0.711605,-0.637336,-0.52881,0.60624,0.376217,-0.08472,-0.883078,-0.281006,0.258562,-0.08472,-1.21892e+07,-1.21928e+07,-1.12634e+07
0,0,89,-0.0359515,0.663276,-0.585546,-0.789582,0.0859206,0.470451,0.897235,-0.555782,0.944765,-0.215176,-0.0993676,0.811169,0.940028,-0.810776,0.751818,-0.0671343,0.684911,0.314232,0.72889,-0.287187,0.140966,0.396587,0.982529,0.793365,-0.0810456,-0.450691,0.447837,-0.569258,-0.922321,-0.223512,-0.222157,0.751201,-0.428508,-0.47588,-0.932163,0.181431,-0.428508
0,0,90,-0.343839,-0.27813,0.0787094,-0.174931,0.971621,0.831356,-0.0883334,-0.21151,0.77554,-0.370329,0.973876,0.915725,0.565559,0.85013,0.202084,0.100513,0.0740334,-0.475628,-0.921834,-0.424328,0.10932,0.291071,0.16185,-0.410825,-0.875749,-0.750183,0.374237,0.518709,-0.776488,0.3306,-0.829746,0.113379,-0.0965508,0.0103401,-0.944951,0.113379,-0.0965508
0,0,91,0.989868,0.302148,0.105284,-0.560858,-0.454538,0.414242,0.391162,-0.727552,-0.364664,0.819113,-0.678072,-0.829728,0.562527,-0.252737,0.393477,-0.651111,-0.254129,-0.8582,-0.659972,0.945767,0.0284434,-0.432606,0.844585,-0.267327,-0.346176,0.617132,-0.527151,-0.194917,0.269767,0.120616,0.265593,-0.169543,-0.533402,0.120616,0.469164,0.107437,-0.533402
0,0,92,0.173683,-0.320268,-0.0382759,-0.775635,0.0695221,-0.926118,-0.332744,0.321165,0.277635,-0.547898,-0.271944,0.122808,0.175744,-0.73442,-0.441456,-0.621816,-0.961295,-0.94178,0.480634,-0.521379,0.322438,0.829851,0.144027,-0.419202,-0.0497291,0.879127,-0.249324,-0.792485,-0.583605,-0.0520655,0.531376,0.254882,0.448666,-0.455972,0.531376,0.254882,-0.725563
0,0,93,-0.655093,-0.700254,-0.808156,0.799042,0.226319,0.00651858,0.103685,0.798286,-0.60297,0.532624,-0.826583,0.200799,0.681097,0.453144,-0.494084,0.00135193,-0.1678,-0.942595,-0.640842,-0.779621,-0.967588,-0.266189,0.579962,0.73953,0.669012,0.126939,-0.433413,-0.368918,0.335974,-0.695565,0.0356988,0.826947,0.521997,-0.581849,0.0356988,0.833281,0.850589
0,0,94,0.968511,-0.257067,-0.482941,0.29877,0.744113,-0.402152,-0.971049,0.38629,0.193094,-0.796551,0.16091,0.0203866,-0.681813,-0.128361,0.0140151,0.503505,0.897953,-0.565421,0.821012,0.0927335,-0.397503,-0.930135,0.738172,-0.740677,0.522112,0.463271,-0.185603,0.631933,0.771107,-0.100953,-0.658672,0.00398749,0.414354,0.0766551,-0.658672,0.0405519,0.687027
0,0,95,0.699265,-0.147556,-0.192404,-0.259494,-0.857892,0.999589,0.225448,0.751765,-0.494998,-0.88492,-0.0299593,0.0369961,-0.117142,-0.506758,0.978889,-0.728206,0.00852908,0.0237457,0.843893,0.145187,-0.988321,0.723431,0.563144,0.578759,-0.00712697,0.962003,-0.013498,-0.429868,0.253967,0.458052,0.00523017,0.920884,0.505547,0.458052,-0.0226256,0.707108,0.488422
0,0,96,0.23292,-0.594203,-0.498004,0.52721,0.317135,-0.201652,-0.379549,-0.952147,0.589641,0.843042,0.875936,-0.173086,0.928857,0.38904,0.422868,0.405752,-0.376782,-0.355549,0.59579,0.547322,-0.196202,-0.140072,0.837155,-0.660189,0.552157,-0.983686,0.857564,-0.331938,0.349925,0.329433,-0.976444,0.973202,-0.074831,-0.786766,-1.0446,0.973202,-0.074831
0,0,97,-0.901713,0.955751,0.332498,-0.919238,0.394538,-0.212316,-0.711755,-0.0444188,0.438914,0.328513,-0.228201,0.9345,-0.590488,-0.788768,0.0288484,-0.934903,-0.22082,-0.548561,-0.555124,-0.643307,0.503041,0.27106,-0.523128,0.928802,0.479702,0.228475,-0.803179,-0.253982,0.118552,0.210934,0.554967,-0.901126,-0.392844,-0.193341,0.554967,-0.901126,-0.482691
0,0,98,0.616903,0.812464,0.836515,0.152705,0.676248,0.187613,0.671486,-0.642814,0.620576,0.793305,0.0586979,0.995621,0.158601,0.302758,0.321916,-0.589572,-0.886176,-0.104294,0.487901,0.691069,0.175146,-0.179741,-0.311315,-0.181089,0.810735,-0.0998365,0.709568,-0.180132,0.352267,-0.0273181,-0.72422,0.514965,-0.0453399,-0.0938392,-0.65419,-0.23801,-0.0453399
0,0,99,-0.00714464,-0.0122488,-0.133913,-0.962148,-0.171214,-0.900968,-0.0086011,-0.792577,0.747379,-0.992597,0.985876,-0.629775,0.78206,-0.314243,0.20858,-0.833747,0.802134,-0.0282125,0.780848,0.931701,-0.36632,0.94522,0.173339,0.975219,-0.739151,0.262375,-0.553073,0.602124,-0.922775,0.925148,-0.0320226,0.763633,0.781774,0.925148,-0.0320226,-1.01225,0.781774
0,0,100,0.111168,-0.693616,0.0751154,0.947881,0.481617,-0.246848,-0.299482,0.043583,-0.711701,-0.213801,-0.193703,-0.859135,-0.111779,-0.340433,-0.533688,-0.31986,-0.938541,-0.490179,0.447961,-0.488123,-0.509539,0.215017,0.266273,-0.791479,-0.477271,-0.238757,0.623928,-0.0891716,-0.795672,0.990425,0.303591,-0.64545,-0.829595,1.12326,0.511036,-0.64545,-0.829595
0,0,101,-0.0745136,-0.789121,0.920038,0.703942,0.317272,-0.558612,-0.317005,-0.191619,0.466509,0.357122,0.780016,-0.16007,0.0339134,0.921704,0.291312,-0.355251,-0.556866,0.621322,-0.191344,0.680633,-0.0644656,0.0646177,-0.835459,0.738561,-0.0975225,0.377806,-0.152126,-0.512501,-0.617828,0.916302,-0.198431,-0.0953273,0.457961,0.481917,-0.198431,-0.194422,0.457961
0,0,102,0.001968,0.502521,-0.203811,0.432816,0.439674,0.369249,-0.829208,-0.448144,-0.279493,0.723713,0.983476,0.0779125,0.749331,-0.0732089,-0.845188,0.422532,0.255656,0.866247,-0.444797,-0.103066,-0.478634,-0.542246,-0.74784,-0.803106,-0.781443,-0.783402,0.17834,0.921868,-0.69301,-0.751459,-0.872423,-0.966362,0.480464,1.47767,-0.617647,-1.02417,0.480464
0,0,103,0.507622,-0.171584,0.770768,-0.890806,-0.160479,-0.133698,-0.721098,0.983557,0.401469,-0.771423,-0.0787469,0.165896,-0.804146,-0.124517,0.0796804,-0.485849,0.962214,-0.0553104,-0.565059,0.716869,0.574654,-0.43136,0.0625146,-0.196773,0.721373,-0.957905,-0.251324,0.885765,-0.829658,0.299257,0.859753,-0.42332,-0.941324,0.299257,0.859753,-0.42332,-0.132056
0,0,104,-0.679491,-0.53735,-0.262578,-0.82126,0.247609,0.709643,-0.00922876,0.297586,0.561377,0.202137,-0.417823,0.37844,-0.167993,-0.894551,-0.348843,-0.530608,0.663695,0.365892,0.173957,-0.0492039,0.165277,0.0825842,0.91582,-0.716928,0.713437,-0.835442,0.240433,0.861381,0.758632,0.604199,0.121146,0.512443,0.663115,0.267641,-0.897838,0.512443,0.209417
0,0,105,0.49767,0.928824,-0.414362,0.0947884,-0.0589311,0.326872,0.962952,0.361696,-0.979254,0.27544,-0.159065,0.658564,-0.459096,-0.494419,-0.0731961,-0.021626,-0.156149,-0.872535,-0.140882,0.0959861,-0.761437,-0.497749,0.468589,-0.892754,-0.505929,0.0534192,-0.214592,0.137346,-0.576987,-0.286453,0.887635,-0.557552,-0.926505,-0.286453,1.40405,0.892451,-0.926505
0,0,106,0.668525,0.552305,-0.112366,0.445277,0.442314,0.268678,-0.528291,0.893733,-0.322038,0.139505,0.0383129,-0.604989,0.705039,0.592167,0.244693,-0.867457,-0.490057,-0.260856,-0.195212,-0.462493,-0.131555,0.142815,-0.809258,0.748216,0.448426,0.182865,-0.035125,-0.318178,0.0349895,0.134835,0.312808,0.0867265,-0.319655,0.0702973,-0.0935754,0.0867265,0.375204
0,0,107,0.0255525,0.121145,0.644008,0.188612,-0.312948,-0.434884,0.945041,0.0387152,-0.823369,-0.0601345,0.798946,0.829234,-0.913342,0.682399,-0.900202,-0.99747,-0.0080646,-0.468365,-0.360893,0.758798,0.432009,-0.745276,0.467987,-0.280729,0.72195,-0.764265,0.335774,-0.317459,-0.551073,0.429792,-0.947592,-0.0427694,-0.932124,0.429792,-0.947592,1.48447,-0.673404
0,0,108,-0.162106,-0.793725,0.362479,0.306669,-0.369768,-0.932431,-0.0582485,0.70109,-0.326641,-0.0581493,-0.316053,-0.874896,-0.925032,0.044575,0.0212803,-0.0635474,0.809974,0.345824,0.430359,-0.32219,0.280447,0.711476,-0.107924,0.508088,0.220905,0.824602,0.0369381,0.776217,0.588052,0.399697,-0.241022,-0.694768,0.0526802,-6.46485,-0.241022,-6.46638,-3.52686
0,0,109,-0.533672,0.944808,-0.557258,-0.585302,0.935145,-0.402563,0.877811,-0.11334,-0.901695,-0.605971,0.320817,-0.360292,-0.637112,-0.751138,0.350951,0.65743,0.642224,0.122719,-0.689017,-0.0368253,0.623095,0.605467,-0.416898,0.255159,-0.0710993,0.0358716,0.170679,0.358237,0.702468,0.49754,-0.461017,-0.042154,0.795866,0.51886,-0.461017,-0.016148,0.779032
0,0,110,0.927165,0.757404,-0.882168,-0.531135,0.0404162,0.268594,0.377962,0.814903,0.19917,-0.675403,0.384674,0.582976,-0.985767,0.54389,-0.394955,-0.953839,0.959737,-0.958302,0.303425,-0.777002,-0.789726,-0.92836,0.531098,-0.756461,0.0761252,0.416776,0.299287,-0.436061,-0.957679,0.350448,0.849354,0.98594,0.69081,0.272282,-0.196261,0.98594,-0.235209
0,0,111,0.966718,0.436022,0.375192,0.578815,0.566618,-0.352037,0.994042,0.129028,0.227663,0.424971,-0.249253,0.334273,-0.245729,0.42769,0.974329,0.467378,-0.454205,-0.361612,0.188602,-0.873604,-0.255781,0.328462,-0.0546459,0.447338,-0.0137296,-0.0401723,-0.0918649,-0.950086,0.141444,-0.469499,-0.298061,-0.520454,0.201687,-0.117793,-0.0909634,-0.284665,0.201687
0,0,112,-0.0176056,-0.177353,-0.0276151,0.557243,-0.744947,0.187123,-0.258837,0.448172,0.238156,0.757935,-0.983721,0.0465776,0.838098,-0.987044,-0.573097,-0.781152,0.374152,0.223565,-0.98209,0.2338,0.566149,0.91114,-0.694468,-0.592616,-0.0504565,0.750024,-0.0910811,-0.838173,0.18985,-0.648413,0.389057,0.224196,-0.444213,-0.648413,0.444925,0.224196,-0.21413
0,0,113,0.834322,0.500252,0.805243,-0.0789219,0.500671,0.319738,-0.000838411,0.995856,-0.758887,0.819579,0.170619,-0.791258,-0.861014,-0.616827,-0.658968,-0.158665,0.446506,-0.0258734,0.41785,0.109324,-0.306568,0.0740941,0.463718,-0.262127,0.545613,0.50411,-0.953306,0.133668,-0.192118,-0.195784,0.688343,-0.13677,0.404443,-0.26479,0.495147,-0.13677,0.780827
0,0,114,-0.924983,0.546704,-0.508376,-0.845288,-0.0807468,0.826408,-0.200508,0.567539,-0.935882,0.723125,0.734371,0.833287,0.306254,-0.921488,-0.592648,0.707274,-0.0278386,0.0233351,0.141447,0.329107,-0.877509,0.442312,-0.983721,0.40115,-0.580883,-0.424088,0.458332,0.563103,0.455891,0.280306,0.481117,-0.375609,0.852095,0.49623,0.934473,0.330921,0.0636232
0,0,115,-0.0595493,0.634019,-0.324465,0.98892,-0.52266,-0.158839,0.386406,-0.711349,0.131799,-0.667456,0.362675,-0.89854,0.454559,0.38391,0.0196928,-0.0203409,-0.125743,-0.0318786,-0.707511,0.0609263,-0.917696,0.919594,-0.501721,0.0881604,0.606328,0.759077,0.999824,-0.559909,0.478447,-0.970798,-0.129231,-0.626658,0.0126317,1.5406,0.137115,-0.180339,0.0126317
0,0,116,0.520666,0.215881,0.488884,0.614706,0.261603,0.447306,-0.0197031,-0.885685,0.365589,0.202966,0.682976,0.71984,-0.9893,0.520138,0.664636,-0.393211,0.934945,-0.835503,-0.168268,0.4128,0.395983,-0.737091,-0.978573,0.0317598,0.695482,-0.739364,0.55752,0.673799,-0.0532381,0.719416,-0.552678,-0.269637,0.803655,0.719416,-0.801491,-0.722349,-1.52159
0,0,117,-0.436218,0.845071,0.367075,0.787443,-0.392561,-0.169991,0.0531928,-0.392475,-0.803654,-0.97978,-0.678875,0.61972,0.793802,-0.701007,0.81392,-0.191347,0.793735,-0.537477,0.831185,-0.45506,-0.670794,-0.246588,0.899059,0.599343,0.983788,-0.535213,0.0900487,-0.789832,0.999628,0.628179,0.27433,-0.27154,-0.499342,0.628179,0.763592,-0.27154,0.0791969
0,0,118,0.704078,-0.516299,0.244186,0.823628,-0.693187,0.0551317,0.690108,0.536561,-0.901,-0.719639,0.0580939,-0.573342,-0.522703,0.479296,0.620811,-0.581205,-0.906435,-0.141986,-0.743182,0.209474,-0.0640173,-0.895911,0.0266843,0.0833136,-0.0740279,-0.408545,0.0405958,-0.315537,-0.508538,-0.779461,0.0114372,0.715992,0.778912,-0.779461,1.25654,1.02964,0.740792
0,0,119,-0.337446,-0.567519,-0.336095,-0.317791,-0.356496,0.681921,0.368306,0.335981,0.611651,-0.23458,-0.0503535,-0.693675,-0.079027,-0.977455,0.515406,0.0148838,0.186207,0.174426,-0.425329,-0.250009,-0.630993,0.34898,0.611685,0.410826,-0.264949,0.826441,-0.732914,0.939655,0.807943,0.955821,-0.286071,-0.741122,0.575346,0.955821,-0.568918,-0.873378,0.291616
0,0,120,-0.204402,0.0283977,0.553312,-0.897062,0.968006,-0.633374,-0.833237,0.660215,0.0507868,0.607873,0.642349,0.412522,-0.621404,0.713577,0.198722,0.403861,0.255186,-0.0245077,-0.165912,0.690939,0.995121,-0.561153,0.433552,-0.829424,-0.881757,0.911136,-0.70915,0.48176,0.41541,0.388865,-0.567488,-0.369903,-0.782293,0.476641,-0.567488,-0.369903,-0.906187
0,0,121,0.149718,0.0220001,0.988681,0.023839,-0.095468,0.939162,-0.641876,0.391694,0.982741,0.202923,0.573654,-0.716564,0.546543,-0.194562,0.938922,-0.519138,0.990512,0.599735,0.138015,-0.224106,0.166997,-0.61265,-0.491364,-0.658715,0.0697415,0.191595,0.279328,0.0422436,0.846109,0.930663,-0.228079,0.249278,-0.12963,0.992923,-0.0222963,0.249278,0.0499987
0,0,122,0.592493,-0.549091,0.846405,-0.53965,-0.177928,-0.689693,-0.315526,-0.0310234,-0.519509,-0.321364,-0.0803958,-0.380626,-0.653673,0.833776,-0.855764,0.975265,-0.837392,-0.35034,-0.382706,0.762761,-0.832663,0.912794,-0.467087,0.545668,0.961335,0.390046,0.0557588,0.53842,-0.753592,0.206286,0.778548,0.112458,-0.398128,0.865745,0.778548,-0.269881,0.139982
0,0,123,0.369349,0.991319,-0.254277,-0.813065,0.809718,0.424289,-0.988185,0.699264,0.182629,-0.257868,-0.104666,-0.355364,-0.720565,-0.455707,-0.3416,-0.559582,0.488926,-0.927749,-0.0890886,0.95541,-0.483903,0.237274,0.812553,-0.471957,-0.766008,0.94335,0.0623646,-0.768312,0.194289,0.221921,0.0570124,0.786129,0.161856,0.221921,-0.418782,0.786129,-0.18723
0,0,124,-0.94367,-0.639353,-0.93788,-0.875918,-0.890867,0.24611,0.13421,0.856282,-0.726586,-0.952421,-0.0460411,0.163607,0.161634,-0.452726,0.296515,0.850046,0.472141,-0.67617,0.396521,0.183375,0.931558,-0.294396,-0.225249,0.229041,-0.50056,-0.13513,0.861749,-0.347394,0.327484,0.19208,-0.491394,-0.140277,0.431244,0.19208,-0.499854,-0.144582,0.401559
0,0,125,-0.741147,-0.081672,0.0524663,0.503245,0.220244,-0.0405598,-0.271084,-0.858375,-0.825961,0.00895037,-0.257737,0.819763,-0.860347,0.0883133,0.336294,-0.567886,-0.0239851,-0.0126981,0.731603,0.0519467,0.414398,0.715263,-0.0242018,0.744177,0.100841,-0.285104,0.488992,0.60635,-0.236523,-0.450721,0.930916,0.578365,0.993692,1.44487,1.99429,1.30917,0.993692
0,0,126,0.374747,0.000127453,-0.136231,-0.0507589,-0.281677,-0.702746,-0.679503,-0.526395,0.4366,0.0360597,0.874044,-0.193283,0.739064,-0.48473,-0.321866,0.597015,0.816479,0.29951,-0.857734,-0.407379,-0.129263,-0.197465,0.523957,0.0773808,0.317725,-0.0610576,0.273536,-0.158551,0.686846,-0.0900914,0.0866887,-0.199221,-0.27374,-0.0900914,0.0866887,-0.199221,-0.726521
0,0,127,-0.349773,0.869648,-0.552956,-0.212079,-0.0366856,0.345068,-0.92561,0.187135,-0.424207,0.800933,0.564574,0.305631,0.562738,-0.787642,0.84921,0.549256,0.984177,-0.619031,-0.198373,0.735096,0.984094,0.204655,-0.313567,0.707797,-0.614249,0.900005,-0.294348,-0.389466,-0.754173,0.150792,0.328997,-0.327348,0.0668132,0.150792,0.737835,-0.327348,1.09232
0,0,128,0.182816,0.252016,0.225087,-0.0616699,0.835113,0.756323,-0.967396,-0.252978,0.646679,-0.211887,-0.777874,0.978215,-0.198699,-0.514071,-0.148819,-0.84223,0.305899,0.716693,0.852105,0.581268,-0.255622,-0.0494175,-0.402114,-0.949267,0.102726,0.128651,0.405143,-0.166808,-0.549675,0.486306,0.684526,0.545166,0.633435,-0.822015,-0.00825122,0.545166,0.633435
0,0,129,0.989733,0.652601,0.104831,-0.0618109,0.277402,0.81613,-0.568985,0.938871,-0.994762,0.479963,0.661752,0.152885,0.484489,-0.111721,0.704616,-0.0279231,0.454136,0.224004,0.786279,0.53091,0.245758,0.848657,0.293092,0.375509,0.448963,0.604457,0.61117,-0.976939,0.759306,0.760927,-0.257556,0.59909,-0.621986,30.8524,-11.1505,0.59909,-11.5149
0,0,130,-0.671875,0.251598,-0.683311,-0.98817,-0.49064,0.876788,-0.829993,-0.49134,0.582204,-0.909551,-0.266519,-0.427557,-0.204088,-0.820266,-0.446379,0.0984306,0.622586,0.819126,0.899347,0.557433,0.963465,-0.476704,0.772083,0.0416332,-0.82389,0.160353,0.437188,0.786522,-0.959262,-0.0985096,0.283466,-0.810497,0.919961,-0.0985096,-0.621208,-0.810497,0.929175
0,0,131,0.125272,0.832209,0.963929,-0.0228421,-0.59154,-0.349574,-0.642294,-0.820267,-0.580794,0.405951,-0.702859,-0.145299,-0.372181,-0.643694,0.178521,-0.979703,-0.871382,0.974233,0.129018,-0.89814,-0.827625,0.704955,-0.12327,0.801477,-0.844461,0.960804,0.138959,-0.715795,-0.612936,0.285285,0.44402,-0.65862,0.958975,0.580794,0.44402,-0.65862,0.958975
0,0,132,-0.164484,0.534027,-0.0597877,0.678347,-0.201802,0.769175,-0.159154,0.970045,0.131841,0.608697,0.59278,0.537892,-0.182795,0.951203,-0.403264,0.215345,-0.955097,-0.700198,0.193247,0.260809,0.921497,0.539468,0.823901,-0.418731,-0.383666,0.132967,0.334373,0.810914,-0.796912,0.725718,-0.945283,0.836178,0.371784,0.725718,-1.00955,0.780316,0.592563
0,0,133,0.354737,0.0679943,-0.494752,-0.977956,-0.00814109,-0.698923,0.109208,0.894819,-0.426314,0.0366316,-0.149526,-0.962107,0.91948,0.836923,0.665159,-0.880457,0.611499,-0.439907,-0.248403,0.875256,0.138107,0.826749,0.54503,-0.867907,0.478106,-0.405197,-0.103072,0.745067,0.822772,-0.289037,0.578342,-0.0882282,0.00267865,-0.186875,0.578342,-0.0882282,0.476758
0,0,134,-0.230635,-0.740064,-0.992501,0.795095,-0.54752,0.901842,0.922125,0.916756,0.738092,-0.744697,-0.542372,0.55939,-0.787926,-0.739749,0.297043,0.756036,0.442744,0.91469,0.124296,-0.505926,-0.0190914,-0.892196,-0.656685,-0.113399,0.952291,0.599251,0.95149,0.480887,-0.765879,-0.746599,-0.425072,-0.0519253,0.979449,35.5735,192.506,191.158,-211.196
0,0,135,0.549383,-0.911158,-0.0816914,-0.118102,-0.74125,-0.313674,0.300588,0.483581,0.205613,-0.66874,-0.345456,-0.309879,0.0207538,-0.0647408,0.130797,0.795942,0.609697,-0.640421,0.441513,0.650874,-0.0599693,-0.716348,-0.241998,0.464153,0.896223,-0.491156,-0.274137,-0.129247,-0.0211223,0.161903,0.683278,0.400364,-0.171374,0.161903,0.683278,0.0985558,-0.305704
0,0,136,-0.861672,-0.506846,0.0736282,-0.989428,-0.519961,0.882558,0.54489,-0.87833,0.821407,-0.0127097,-0.186903,-0.402448,-0.778023,-0.565248,-0.818278,-0.551454,0.680864,-0.0677077,-0.892327,0.910362,-0.611686,-0.0457999,0.211133,-0.514227,-0.33074,-0.886221,-0.408092,0.339947,-0.260441,-0.670137,0.811776,0.600488,0.00899929,-0.670137,-0.7986,-0.0885812,0.00899929
0,0,137,0.0978424,0.919571,-0.871664,0.326739,-0.448803,-0.337528,-0.52702,-0.177331,-0.0540621,0.809975,0.165289,-0.224622,0.384409,0.16765,0.183838,-0.729948,0.644552,0.0545599,0.569173,0.978864,0.836404,-0.0884218,0.65765,-0.19331,-0.0682942,0.93788,-0.49971,0.782301,-0.385898,-0.495282,0.0189356,0.00339303,0.0374102,-0.445715,0.0921469,-0.144903,0.270085
0,0,138,0.540996,-0.0830489,0.977103,0.706465,0.801123,0.0571863,-0.184308,-0.67152,0.829929,-0.80979,-0.650089,0.30451,0.656886,0.460159,0.236099,0.627883,0.44389,0.910481,0.163959,-0.719972,0.365713,0.831055,-0.209523,0.886837,0.0754245,0.726746,-0.0234037,-0.148703,-0.940838,-0.0892831,0.16415,-0.883662,0.953991,-0.497155,0.343757,-0.581495,0.953991
0,0,139,-0.623191,0.831217,-0.626214,-0.472197,-0.3723,0.337925,-0.489308,-0.0227583,-0.770244,-0.582251,-0.525457,-0.820121,-0.170872,0.335921,-0.20474,-0.143721,-0.760373,-0.995613,0.589891,0.640112,0.374055,-0.26449,-0.0621492,0.552511,0.710468,0.582764,-0.365168,-0.580462,0.0972108,0.370196,0.83787,-0.336525,-0.583522,0.370196,2.06574,-0.293087,-0.32644
0,0,140,0.317969,-0.73267,-0.443363,-0.548786,0.302199,-0.966666,0.147482,-0.321167,-0.0501365,-0.271684,0.7089,-0.827833,-0.510752,-0.912651,0.0358504,0.916741,0.0634656,-0.297775,-0.336949,-0.760269,0.298864,-0.202538,-0.186669,0.370444,-0.459959,0.567321,0.663971,-0.411237,0.779991,-0.961759,0.487425,0.736703,0.97635,-0.732753,0.487425,0.419509,0.97635
0,0,141,0.36481,-0.315931,0.403987,0.349222,-0.364041,0.870925,-0.107669,-0.305553,0.935485,0.837097,-0.501389,-0.802519,0.281861,0.0389494,0.723231,-0.405634,-0.0234872,-0.673369,0.369349,-0.92543,-0.50074,0.5705,0.696574,0.70136,-0.228557,0.742988,0.784688,0.276359,0.566477,0.806268,0.13532,-0.2877,0.0492015,0.480489,-1.00329,-0.553509,0.024724
0,0,142,-0.693059,0.000525539,-0.462303,0.895423,0.889423,0.535828,-0.475324,0.861609,0.47422,-0.015978,-0.0371924,-0.295822,0.728642,0.751304,0.0907998,0.0317948,-0.0619033,0.11565,-0.950647,0.621583,-0.170431,-0.368582,0.917378,0.661287,0.0584293,-0.171755,0.844733,-0.0757643,-0.917213,-0.705153,-0.0148176,0.170023,0.19553,-0.665461,-0.0152048,0.170023,0.202766
0,0,143,-0.778608,-0.728834,-0.605122,-0.144094,-0.0842324,0.581485,-0.510847,-0.464926,0.802149,-0.641421,-0.673044,-0.155635,0.121339,0.77125,0.801961,0.217538,0.818335,0.845179,0.742128,-0.748519,-0.261846,-0.266656,0.794447,-0.409311,0.391338,0.313814,0.494656,-0.175017,-0.258729,0.738819,0.113244,-0.173597,0.955779,0.738819,-1.22564,-0.173597,0.955779
0,0,144,-0.629538,-0.0273622,0.193542,0.0630073,-0.406543,0.976831,0.702013,0.00356649,-0.435873,0.846152,-0.467467,0.471494,-0.62001,-0.691142,-0.697503,0.0274489,-0.143411,0.306655,0.0650908,-0.167959,0.00181764,0.725035,-0.247618,-0.085139,0.859493,-0.279315,-0.856014,0.55502,-0.10654,-0.736213,-0.455761,0.796757,0.234685,-0.736213,-0.433336,0.7276,0.582869
0,0,145,-0.670683,0.660152,-0.805988,0.361897,0.972314,-0.2569,-0.526183,-0.74499,0.463291,0.651555,0.815291,-0.769642,-0.0465984,0.229449,-0.108018,0.804962,0.878989,0.735952,0.689766,0.53611,-0.945325,-0.565066,0.1538,-0.95188,-0.744087,0.662535,0.434042,0.929025,0.394228,0.0908145,-0.996962,-0.141471,0.233202,-0.434745,-0.918378,-0.215468,0.233202
0,0,146,0.291741,0.47292,0.294227,0.687385,0.918252,-0.334585,0.579469,-0.599078,-0.188905,-0.373092,0.859242,-0.860246,0.794286,0.732144,-0.676256,0.782289,0.860728,-0.405755,-0.415595,-0.437714,-0.365765,0.419462,0.425409,0.947873,-0.820696,0.90648,0.0857677,0.267318,0.300022,0.751005,-0.942109,0.197594,0.386183,0.163332,-0.942109,0.0268232,0.386183
0,0,147,-0.174241,-0.78238,-0.355231,0.192049,-0.523992,-0.673435,-0.801453,0.399303,0.448946,-0.171182,0.434516,-0.207379,-0.331827,0.320112,0.84389,0.0258337,-0.534441,0.718327,0.62897,-0.733479,-0.238601,0.459661,0.314508,-0.114969,-0.166856,0.317103,0.0270962,0.125657,-0.875252,-0.426875,0.714491,0.393107,0.557601,-0.426875,0.714491,0.393107,-0.313003
0,0,148,0.696911,-0.841608,-0.457014,0.975815,0.328225,0.653156,0.834729,0.416876,0.530668,-0.498421,0.921522,0.650891,0.310817,-0.826597,-0.783566,0.916273,0.242023,0.828619,0.766254,0.260649,-0.564828,-0.958059,0.551365,0.10202,0.374674,-0.579601,-0.819079,-0.81835,-0.416339,-0.601401,-0.204272,-0.668747,-0.401571,-0.601401,-0.204272,0.435025,-0.0842028
0,0,149,0.654439,-0.440046,-0.10494,0.0499192,-0.472075,0.932359,-0.405391,0.805851,0.608711,-0.0355084,-0.631984,0.64699,-0.815628,0.465451,-0.502236,-0.513098,0.200764,0.40234,0.157318,0.639491,-0.0578733,-0.805964,0.601892,-0.119215,-0.11032,-0.460179,0.143356,-0.511401,0.918141,0.6011,-0.195061,0.335581,0.414481,0.6011,-0.730281,0.335581,-0.141075
0,0,150,0.251395,0.518424,-0.533839,-0.613828,-0.569402,-0.30836,-0.864268,-0.747254,0.651016,-0.931578,-0.444488,0.850821,-0.602858,0.13473,0.543531,0.32911,-0.364363,0.618429,0.608479,0.223789,-0.988461,-0.331473,0.403758,0.119394,0.61752,-0.0308605,-0.890447,-0.0116129,-0.123482,0.229273,-0.495436,0.129105,-0.758698,0.230336,-0.686036,0.129105,-0.758698
0,0,151,0.492554,0.276284,0.934389,-0.710733,-0.109593,-0.210825,0.428568,0.854088,-0.245652,-0.283732,0.0908622,-0.25557,0.0903292,-0.673413,-0.416288,-0.0833279,-0.699545,0.461023,-0.577775,0.419292,-0.457249,-0.552785,0.208807,-0.924577,-0.936032,0.582963,0.559282,-0.495641,0.832018,-0.495482,-0.0762691,-0.0586184,-0.168642,-0.495482,-0.0762691,-0.0586184,-0.168642
0,0,152,-0.565046,-0.0954274,0.701353,-0.168026,-0.157766,-0.523915,0.325409,-0.17905,-0.948014,0.981076,-0.303174,0.0785501,0.886885,-0.314947,0.848941,-0.279197,0.517295,-0.813192,0.799375,0.797033,-0.52554,0.709315,-0.962992,-0.619218,0.81098,-0.880081,-0.842908,-0.971646,-0.0281663,0.407956,0.871511,-0.224942,-0.804478,2.38339,0.871511,0.615558,2.93804
0,0,153,0.0689075,0.449826,-0.768067,-0.622844,0.987177,-0.950353,0.630713,-0.538556,0.654113,-0.553203,0.954598,-0.039416,-0.393279,0.931163,0.367905,-0.282785,-0.145158,-0.668271,0.456979,0.545358,0.850401,0.669899,-0.522586,0.589819,-0.652698,0.854705,0.441095,0.971028,-0.313256,0.289567,-0.386342,0.766867,-0.507693,-0.369543,-0.386342,-0.773844,-0.821745
0,0,154,-0.510497,-0.602425,0.233171,0.214987,-0.654827,-0.753247,0.513032,0.593128,0.366461,0.330434,-0.759537,0.481432,-0.249762,-0.500166,-0.21894,0.112282,0.0712941,-0.877397,0.511725,0.772415,0.176164,-0.297033,-0.129691,0.800974,0.490852,0.957768,0.231764,-0.200737,0.592144,-0.764197,-0.766958,-0.368351,-0.180656,-0.764197,-0.766958,-0.185691,-0.196229
0,0,155,0.586625,0.255445,-0.15008,0.409901,-0.300401,0.379593,-0.895484,-0.175775,0.470711,-0.331839,0.702079,0.809377,0.0889323,-0.0542592,-0.597164,-0.665153,-0.725642,0.449474,0.42023,0.25836,0.210176,0.358478,-0.263952,0.631214,0.270338,0.762192,-0.453443,-0.443427,0.954885,-0.14249,0.845241,0.555272,-0.0321301,-0.71933,0.643649,0.555272,-0.417817
0,0,156,-0.516706,0.925136,-0.214575,0.070633,0.20681,0.583803,0.312732,0.835634,0.422604,-0.32134,-0.302634,0.919426,-0.612641,-0.0156635,-0.380032,0.407089,0.0181508,-0.834114,-0.739119,-0.106423,0.433819,0.000636448,-0.26442,-0.108281,0.668133,-0.142062,-0.0312283,0.467428,0.616788,-0.788862,0.709737,0.912365,0.975979,-0.788862,0.709737,0.280656,-0.530989
0,0,157,-0.100247,0.215007,0.817916,-0.35249,-0.707811,-0.386405,0.742153,-0.401387,0.908197,-0.966849,0.426095,-0.142624,-0.546203,0.0461368,-0.875197,0.93777,0.886018,-0.744535,-0.565214,0.491946,0.0709952,-0.251285,0.325271,0.360691,-0.988417,0.28891,-0.365694,-0.986811,0.402054,-0.64758,0.926149,0.366706,-0.593175,-0.64758,0.926149,-0.908197,-0.593175
0,0,158,0.255287,-0.942681,-0.846701,0.901756,-0.498708,-0.81482,-0.604977,0.590285,0.742217,-0.539533,0.841224,0.670874,0.24622,0.437754,0.138318,-0.527737,-0.134327,0.592487,-0.263393,0.00834003,-0.000245243,0.0825348,0.831322,0.769366,-0.179195,0.365382,-0.0194871,0.964042,-0.733244,-0.532286,0.764176,0.707683,0.0222522,-1.13041,0.764176,-1.80216,0.0215681
0,0,159,-0.518463,-0.53784,0.935424,0.32791,-0.231827,0.585116,-0.955306,-0.985717,0.120612,0.298262,0.886728,0.984522,0.838705,0.699191,-0.343008,-0.48265,-0.355906,-0.249846,-0.136785,-0.0746107,-0.378019,0.161294,0.718267,-0.900048,0.253194,0.734558,-0.493924,-0.0894371,0.139004,0.961972,-0.225327,0.628308,0.707455,0.0848704,-0.187248,0.628308,0.707455
0,0,160,-0.0101078,-0.857775,0.532024,0.778466,-0.33281,-0.842458,0.0415877,0.900645,0.615185,0.297898,0.680621,-0.953781,-0.332153,0.570896,0.551675,0.22544,0.678595,-0.974523,-0.0904867,0.207891,-0.332495,0.813229,-0.480568,0.923598,-0.118397,0.315833,0.397694,-0.571785,-0.831743,0.377625,-0.212955,-0.80218,0.114571,-0.285234,-0.212955,-0.985123,-1.06347
0,0,161,0.715663,-0.0455838,0.315822,0.580964,0.820633,0.826334,-0.00963219,0.837492,0.789197,-0.77394,0.217385,0.803874,-0.281794,-0.270785,0.608521,-0.603017,0.146074,0.861257,-0.0121405,0.942378,-0.149354,0.421254,-0.730094,-0.0979057,-0.628663,0.673658,0.928426,-0.207158,-0.0410631,-0.54437,-0.221568,-0.637059,0.796022,-0.717211,-0.490563,-0.637059,0.441068
0,0,162,-0.372062,-0.868902,-0.241145,-0.878962,0.495108,-0.577635,-0.421535,-0.890098,0.365544,0.254973,0.0208634,-0.812296,0.861638,0.0552579,0.71457,-0.315762,-0.129962,-0.465111,-0.61094,-0.0471056,-0.778647,-0.0754643,-0.15383,0.0525755,-0.433678,0.291888,-0.30304,-0.739362,-0.198469,0.707442,-0.622148,-0.743676,-0.547466,-0.615773,-0.622148,-0.743676,-0.547466
0,0,163,0.870983,0.572513,-0.657933,0.549584,-0.920915,0.644658,-0.132963,-0.481785,0.465322,-0.777616,-0.668584,-0.327512,0.132566,-0.97009,0.432549,0.194275,0.414516,-0.800261,-0.872592,0.81859,-0.155661,0.640552,-0.0577578,-0.0569426,-0.892275,-0.728422,0.375138,-0.248431,0.504802,0.765573,0.390058,0.43783,0.0563566,0.765573,-0.824564,-1.4305,0.036717
0,0,164,-0.378685,-0.229142,-0.581833,0.161174,0.327773,-0.501438,-0.771124,0.360311,0.934848,0.45104,0.748478,0.923083,-0.358878,-0.305358,-0.320693,-0.623776,-0.601819,-0.0648526,0.223106,-0.896264,-0.657331,0.482247,-0.170461,-0.292208,0.443362,-0.864347,0.269942,0.117179,0.12181,0.540428,-0.105649,-0.430734,-0.28228,-2.93819,-0.105649,-0.430734,-1.58447
0,0,165,0.789204,-0.587797,0.939375,-0.72712,0.409914,-0.120723,0.235468,-0.307931,-0.105428,-0.131856,-0.418487,0.263231,-0.304025,-0.645266,-0.849974,-0.915265,-0.962304,-0.00408254,-0.54322,0.759421,-0.486641,-0.838218,0.704341,-0.435645,0.147498,-0.366869,0.801958,-0.0722928,-0.966953,0.619647,-0.218093,-0.619102,-0.955485,0.619647,-0.142957,-0.619102,-0.955485
0,0,166,0.0576188,-0.00233239,-0.480189,0.554098,-0.41851,-0.394845,-0.550922,-0.635283,0.623833,-0.347751,0.833656,-0.295476,0.513771,0.841242,-0.390402,-0.884024,-0.519247,0.113058,0.309743,-0.714483,0.92437,0.237617,0.758832,0.965748,0.810254,-0.756858,-0.134996,0.45168,0.0440945,0.775603,-0.234254,0.98861,-0.146502,0.775603,-0.234254,0.98861,-0.490153
0,0,167,-0.392518,-0.956616,0.667394,-0.0828888,-0.198974,-0.670204,0.948404,0.671113,-0.419115,-0.0668243,-0.437678,-0.303649,0.77514,-0.216031,0.472266,0.922972,-0.344841,0.329882,-0.302006,-0.966362,0.81853,0.325675,-0.0833504,0.375928,-0.886876,-0.70469,0.579764,-0.177429,-0.337117,-0.742613,0.670449,-0.917061,0.966696,-0.772483,0.670449,0.288441,1.16329
0,0,168,-0.0803898,-0.414088,-0.120384,-0.289156,-0.103317,0.477691,-0.987966,0.2339,0.902912,0.16218,0.224133,-0.618789,-0.268096,-0.880843,0.976353,0.627368,-0.942792,-0.560336,0.382629,-0.653582,-0.515986,-0.445026,-0.624228,0.69864,0.719202,-0.900732,0.580365,0.205577,0.126894,0.2061,0.567784,-0.0337376,0.380718,0.2061,-1.16423,-0.0337376,-1.09561
0,0,169,-0.736226,0.870982,0.105641,-0.758059,-0.645993,0.467717,-0.857475,0.254506,-0.769378,0.411635,0.81408,0.617499,-0.582827,0.499413,0.885469,-0.909134,-0.958092,0.755969,0.489682,0.278678,-0.48661,-0.576266,-0.32399,-0.52113,-0.0072677,-0.844487,0.753817,-0.0514145,-0.473969,-0.659137,0.498624,-0.201615,0.246084,-0.659137,1.10406,-0.201615,0.263901
0,0,170,0.0156521,0.799084,0.49798,0.356547,0.165754,0.941652,0.445183,-0.475735,0.224886,-0.866184,0.112605,0.29971,-0.922943,-0.0305809,-0.284629,-0.423884,0.280338,-0.656626,-0.640503,0.449886,-0.51675,0.728621,0.862052,0.0894623,-0.79858,-0.587329,0.968841,-0.0971258,0.195086,-0.860941,-0.641602,-0.977527,-0.968259,-0.706265,0.34089,0.580049,-0.968259
0,0,171,-0.700742,0.997845,-0.464168,0.874626,0.527445,0.430293,-0.187602,0.131109,0.303167,0.260669,0.891869,0.462401,0.158724,0.526063,-0.523414,0.421484,-0.465882,0.182405,0.245382,0.822889,0.158166,-0.150608,0.287773,0.647185,0.624096,-0.653093,0.519224,0.208966,0.501978,0.933287,0.303042,0.108679,0.657566,0.872189,-0.223794,-0.569631,0.199211
0,0,172,0.41447,0.732349,-0.177144,0.705545,-0.175906,0.801769,-0.880755,0.838863,0.443997,-0.723475,-0.152609,-0.283385,0.305264,0.213566,-0.295812,0.32478,-0.288802,0.204893,0.978486,-0.206728,-0.844849,-0.0103779,0.0340471,0.0276142,-0.821319,-0.73259,-0.844996,0.650217,-0.796831,-0.00624934,0.962283,-0.645336,0.719133,-0.00624934,-0.5256,-0.645336,0.719133
0,0,173,0.305621,0.250306,0.919464,-0.0990413,0.873764,-0.517602,-0.651259,-0.744733,-0.419972,-0.343883,-0.3932,-0.823301,-0.614662,-0.870014,0.53872,-0.653819,0.146297,-0.462651,0.871896,0.677613,0.587915,-0.599702,-0.281517,-0.917474,-0.382573,0.973692,0.699136,0.418134,-0.232101,0.591073,-0.28467,0.755773,0.708933,0.685684,0.874751,0.755773,0.708933
0,0,174,-0.671777,0.333551,0.592917,0.294966,-0.161006,-0.0818203,-0.443591,0.753358,0.336111,0.752887,0.967328,-0.597673,0.201493,0.69716,-0.90333,0.873856,-0.613238,0.844324,0.867373,-0.850141,0.167851,-0.02222,-0.260616,-0.472859,0.709267,0.967153,-0.755987,0.0111139,0.0335477,-0.17322,-0.30463,0.745894,-0.348744,0.514801,-0.0264545,0.745894,0.118469
0,0,175,-0.848053,0.154759,-0.737163,-0.173997,0.0978922,-0.89585,-0.512706,-0.15772,-0.477729,0.638767,0.854541,-0.792161,0.541135,0.347629,0.74832,0.562347,-0.829418,-0.711952,-0.90388,-0.237754,0.725662,-0.0226589,-0.182614,-0.586993,0.0164489,0.689389,-0.813603,-0.182764,0.934953,0.913504,-0.992797,-0.0476255,0.689322,0.932458,-0.992797,-0.0476255,0.64307
0,0,176,0.94636,0.141478,0.219312,-0.442411,-0.679735,0.995056,-0.136213,0.805579,-0.865751,-0.153601,0.215975,0.636118,0.109024,-0.164927,0.872941,0.424395,-0.787659,0.384597,-0.584267,-0.543278,0.230401,-0.520389,-0.465994,0.957008,0.144138,0.096287,-0.219095,-0.804739,-0.0915762,-0.150286,0.931202,0.631372,-0.753919,-0.150286,0.770455,0.385442,-0.8807
0,0,177,0.573318,0.616383,0.130722,-0.0889047,0.317347,-0.837856,-0.789786,0.392731,0.560589,0.774185,-0.594476,0.031633,0.752878,0.65869,-0.986154,0.0881742,0.606043,-0.866188,0.618032,-0.154181,0.162685,-0.691677,-0.0910435,-0.725146,0.659132,0.768553,-0.319692,-0.498373,-0.641897,-0.0667709,0.333312,0.705245,-0.14922,0.0493138,0.333312,0.705245,0.558254
0,0,178,-0.324653,-0.980505,-0.91744,-0.685534,-0.763046,-0.169789,0.892352,-0.106799,-0.609923,-0.126359,0.570009,-0.998486,0.889821,0.884403,-0.616976,0.71344,0.247354,0.771603,-0.970264,0.593962,0.355098,0.635516,0.490526,-0.478579,-0.136874,0.303011,0.835707,-0.623604,0.693536,-0.623221,-0.330748,-0.477346,-0.259072,-0.623221,-0.330748,0.712566,-0.258364
0,0,179,-0.302162,0.587165,-0.571089,-0.557244,-0.818708,-0.403139,0.380941,0.287657,0.282028,-0.318792,-0.654794,0.0140364,0.35685,0.851937,-0.270223,0.0980108,0.100058,0.292058,-0.983695,-0.537145,0.608453,-0.907512,0.339472,0.349751,-0.679973,0.857242,0.897422,-0.626259,0.412536,0.306201,0.114714,0.955875,-0.0897436,0.306201,0.114714,-0.560473,-0.355308
0,0,180,-0.0805127,-0.825586,-0.162619,-0.811109,-0.892667,0.415216,-0.959634,-0.833117,-0.598646,-0.201663,-0.339742,-0.363164,0.406121,-0.799086,-0.7329,-0.0804974,-0.639107,0.5321,-0.438447,-0.27311,0.577028,-0.899174,0.425112,0.0430343,0.65665,0.378811,-0.338401,0.200578,-0.672391,-0.856809,0.642029,-0.914005,-0.258046,-0.856809,1.4984,-0.914005,-0.258046
0,0,181,-0.370108,0.541353,-0.815779,-0.551233,0.567939,0.2356,0.892329,0.917347,0.276948,0.138319,0.124481,0.131464,-0.875671,-0.728971,-0.607601,0.100394,0.293374,0.973368,-0.986841,0.916733,-0.326172,-0.195764,0.561367,-0.449597,-0.955149,0.630965,-0.911318,0.58362,-0.582792,-0.389814,0.631001,0.000788304,-0.907401,-0.143268,0.631001,0.247334,-0.751322
0,0,182,-0.864261,0.360271,-0.435836,0.993663,-0.91443,0.722321,-0.519091,-0.417057,0.402088,-0.0341532,-0.510174,0.215949,0.500239,-0.765208,0.0711112,-0.370556,-0.263139,0.180108,0.769076,-0.551138,-0.118295,0.782267,-0.669373,-0.788515,-0.615237,-0.612261,-0.0395752,0.267467,0.106187,0.230473,0.263926,0.402105,0.221293,0.230473,-0.54895,0.402105,0.221293
0,0,183,0.582114,-0.25126,-0.145874,-0.946073,-0.701717,-0.874109,-0.552165,0.317973,0.367881,-0.973509,-0.842952,0.640651,0.400475,-0.378447,-0.0228526,0.981297,0.289216,-0.327307,0.2978,-0.823416,-0.0487585,0.134808,0.431428,-0.733688,-0.0500689,-0.338318,0.251896,-0.93912,0.477919,0.180488,-0.342233,-0.401255,-0.694745,0.180488,-0.342233,-0.185559,-0.54131
0,0,184,0.601348,0.0121089,-0.169823,-0.983417,0.90367,0.773949,0.445366,0.585683,-0.0117668,-0.701519,0.176829,-0.0350661,0.98439,-0.791099,-0.107169,-0.0567731,-0.385402,-0.387313,0.159121,0.132248,0.565538,-0.161988,-0.496007,0.888505,0.980698,0.602532,-0.826825,0.38052,0.874814,0.461711,0.971869,-0.0392073,-0.381277,-0.128621,0.500606,-0.313129,-0.814955
0,0,185,0.980774,-0.0618253,-0.427114,0.0253788,0.691063,-0.979432,0.152069,0.417785,-0.434069,0.413108,-0.382759,0.206059,-0.857062,-0.436562,0.584755,-0.304061,-0.0835055,-0.385275,0.727726,0.163282,0.606752,-0.301492,0.100076,-0.382289,0.221156,-0.880316,0.91396,-0.951681,-0.224481,0.664032,-0.634623,-0.0814315,-0.546881,1.68055,0.40362,-0.0814315,2.93045
0,0,186,0.40543,-0.58474,0.276393,0.0464605,0.996803,0.593098,0.826952,0.228511,-0.455292,0.492519,-0.963818,0.627259,-0.0576895,-0.336325,-0.183195,0.213239,0.402739,0.814755,-0.918414,-0.87545,0.315679,-0.531058,0.808337,0.532523,0.374456,0.193643,0.580893,0.965075,0.312683,-0.513361,0.462882,0.776779,-0.317834,0.163554,-0.013017,0.523205,-0.602709
0,0,187,0.559058,-0.382064,0.0837627,0.25511,-0.34057,0.533693,0.447857,0.92213,-0.217485,0.876399,-0.583382,-0.987108,-0.578481,-0.546241,-0.00253224,-0.526064,0.260721,-0.248088,-0.810709,0.89116,0.0756571,-0.683815,0.498139,-0.216236,-0.364407,-0.41068,-0.775492,0.814753,0.913267,0.422228,-0.808033,-0.569048,0.505986,0.422228,-0.741026,-0.295167,0.749089
0,0,188,-0.975148,0.033481,-0.949848,-0.508626,-0.025551,0.686548,0.913654,-0.42084,-0.60977,0.385522,-0.799715,0.710653,0.422193,0.27739,0.590488,0.407715,0.401566,0.837209,0.108163,0.762437,-0.0524744,0.375987,0.0961475,-0.393993,-0.334413,-0.553246,0.0230347,0.616727,-0.426515,-0.588597,0.721659,-0.0614447,0.730883,-0.459457,0.924455,0.182982,0.730883
0,0,189,-0.315518,-0.808504,-0.987091,-0.117216,0.267009,0.254491,0.372188,0.179996,0.464663,0.628909,0.671661,0.30177,-0.603737,0.32607,0.654931,0.598819,-0.178182,0.412287,0.273884,0.938299,-0.601493,-0.0586707,0.158175,0.797218,-0.362952,0.901846,-0.241929,0.146248,0.214147,0.122239,0.22566,-0.334678,0.791239,-0.537162,0.257751,-0.643408,0.439585
0,0,190,-0.938009,-0.0208754,0.569238,0.975111,-0.739647,0.389984,0.930383,-0.200775,-0.567815,0.793155,-0.784058,-0.857113,-0.851527,-0.644113,-0.258911,-0.526273,-0.171479,0.827141,-0.945997,0.678434,0.648015,0.958481,0.0332029,0.439611,0.0851815,-0.311135,0.576269,-0.94641,-0.814977,0.380083,-0.321705,0.553846,-0.955033,-0.570381,0.421088,0.415212,-0.955033
0,0,191,-0.220377,-0.182417,0.346664,0.171889,-0.403578,0.0600399,-0.0341574,-0.548479,-0.735109,-0.420304,-0.2945,-0.526341,-0.601807,0.0235774,0.149212,0.762938,-0.939316,0.912597,-0.832379,0.496975,0.830819,0.690194,0.392999,-0.567707,0.793554,0.290734,0.9365,0.0804005,0.414288,0.875875,-0.734693,-0.494872,0.0638278,0.629376,0.609255,-0.494872,-0.115497
0,0,192,0.253073,-0.143729,0.616396,0.732224,-0.68061,0.940299,0.371026,-0.774217,-0.0615596,-0.875588,-0.263175,0.143319,-0.919506,0.722843,0.793773,-0.0056721,0.335357,0.4004,-0.602319,0.957311,-0.594314,0.76494,0.289148,-0.365279,-0.146047,0.379278,-0.661919,0.4951,0.588252,-0.734073,-0.692558,-0.276627,0.747631,-0.346184,0.062871,0.372542,0.750288
0,0,193,-0.47957,-0.852885,-0.495131,-0.249305,0.833147,-0.129813,-0.606293,0.245573,0.902497,0.991238,-0.868075,-0.332164,0.715501,0.679804,-0.361935,-0.701535,0.548035,-0.175146,-0.3829,-0.706767,0.479292,-0.215634,0.057082,-0.0626066,-0.265206,-0.133065,0.572513,-0.788575,-0.419485,-0.0807176,0.860126,-0.380231,0.693001,-2.29262,0.860126,-0.380231,0.0649371
0,0,194,0.252795,0.814819,-0.0851018,-0.208763,-0.613811,-0.550415,0.188556,-0.091892,0.103194,-0.221595,-0.74952,0.343046,-0.846589,-0.74511,-0.909922,0.252875,0.912346,0.158008,0.982416,-0.323473,-0.958197,-0.481258,-0.481481,-0.843827,-0.852021,0.945018,-0.995275,-0.948845,0.702146,-0.70458,0.0179743,0.575553,-0.578521,-0.70458,0.0144118,0.567527,-0.578521
0,0,195,0.64311,-0.839418,-0.00845045,-0.158031,-0.990457,-0.0431514,-0.910387,-0.289679,0.281247,0.0730698,-0.331192,0.843276,-0.502008,0.103862,-0.613205,-0.815628,-0.812583,0.0688729,-0.324307,-0.53135,0.915078,0.498237,0.744355,-0.620746,0.692773,0.0974998,0.391647,-0.00350413,0.111522,-0.501997,-0.316245,-0.816764,-0.79105,-0.501997,-0.32757,-0.816764,-0.79105
0,0,196,0.677073,-0.489107,0.781953,0.94402,-0.252555,0.880749,-0.3347,-0.987011,0.867983,-0.372049,0.666379,-0.430158,0.504548,0.443876,0.481227,0.508199,0.55135,-0.270084,-0.83795,-0.507852,0.792828,-0.979948,-0.51551,-0.573029,0.412355,0.240564,-0.0599492,-0.968685,0.605567,-0.56834,-0.510774,0.662909,0.0225342,-0.56834,-0.886635,0.662909,0.0358317
0,0,197,-0.734992,0.696348,0.471355,-0.717787,-0.412968,0.162487,-0.135952,-0.932112,0.43229,0.557274,0.920698,0.274374,0.958068,-0.956222,0.637976,0.486786,-0.181871,-0.350745,0.528922,0.288219,0.0012396,0.156879,-0.254494,0.0655597,-0.0377389,-0.330565,-0.362334,-0.156482,0.921311,0.957795,-0.218903,-0.315758,0.679634,0.957795,-2.6539,-0.342008,0.679634
0,0,198,-0.787987,0.514711,-0.237706,0.325602,0.490476,0.710356,-0.535612,0.564541,0.868527,0.64435,0.165952,0.2803,-0.698143,-0.982018,0.351676,0.202406,0.0845082,-0.032105,0.878713,-0.534351,0.8128,-0.861902,-0.508617,0.950331,-0.334668,-0.976684,-0.881381,-0.288721,-0.528208,0.157353,0.892022,0.699691,-0.709285,0.414667,0.455838,0.699691,-1.60868
0,0,199,-0.795808,-0.495511,-0.431692,0.220194,-0.4415,0.122979,-0.0699085,0.915488,-0.827341,0.0962568,0.292377,-0.194715,-0.864869,0.669815,0.467939,0.774085,-0.105751,-0.660381,-0.738935,-0.381614,0.885401,0.950197,0.71105,0.430005,0.595805,-0.343302,-0.37877,-0.310306,-0.701633,0.511014,0.315231,0.032008,-0.964041,0.511014,0.338437,0.032008,0.858331
0,0,200,-0.596988,0.35334,-0.055487,-0.725823,0.387313,-0.734694,0.970737,0.687917,-0.555713,-0.503179,-0.260173,-0.0362519,-0.145148,0.433473,-0.456156,0.813138,0.957464,0.702806,-0.574349,0.872865,0.968933,-0.643703,0.336955,0.90795,0.0584051,0.516328,-0.589869,-0.336313,0.80662,0.369872,0.496136,0.73545,-0.710693,-0.224649,0.496136,0.960532,-0.899047
0,0,201,-0.663659,-0.585846,0.327767,-0.854634,-0.392216,-0.498693,-0.633239,0.124869,0.766802,0.36266,-0.294213,-0.838581,0.734558,0.782016,0.970685,-0.437368,-0.92687,-0.99269,0.550763,-0.383086,-0.271225,-0.410379,-0.767141,0.904285,0.00381971,0.966891,-0.72984,-0.400453,-0.333436,-0.853675,-0.382558,0.655107,0.382232,-0.853675,-0.382558,0.132239,-0.233888
0,0,202,-0.259869,0.235759,-0.990077,-0.18269,0.677005,0.450995,0.9368,0.0858687,-0.827998,0.765294,0.68648,-0.311302,-0.904871,-0.529265,-0.910049,-0.0410634,0.526155,-0.74348,-0.590766,0.249818,-0.189025,-0.398379,-0.864179,0.07924,-0.829803,0.882947,0.625821,-0.606715,-0.347038,-0.703318,-0.782563,0.714949,0.953601,-0.0164489,-0.275065,0.748596,0.896031
0,0,203,0.7715,0.374389,-0.19453,0.418808,0.0576611,-0.355861,-0.801291,0.396712,0.457963,0.0835771,-0.279874,-0.279551,0.390433,0.00643341,-0.0424434,-0.469308,-0.0970842,0.93439,-0.936418,-0.990827,-0.208352,0.158056,0.387379,-0.126118,0.0426584,-0.813561,-0.688961,0.80298,-0.439888,-0.710523,-0.016629,0.430829,-0.623006,0.0628035,-0.016629,0.430829,-0.379877
0,0,204,0.923622,0.291465,0.452798,0.567172,0.95365,0.369513,0.661193,0.484714,0.877598,-0.069674,-0.486141,0.978143,0.0214472,0.807606,-0.407565,-0.65331,-0.479425,0.937921,0.450294,-0.920822,0.171995,-0.298951,0.631381,-0.88782,0.749439,-0.3639,-0.314751,-0.841809,-0.449752,0.626399,-0.955096,0.940125,0.825441,-0.75491,-1.16547,0.940125,0.726319
0,0,205,-0.759471,0.128213,0.439693,0.284218,0.851049,0.0252883,-0.756253,-0.85549,-0.411756,-0.0265943,-0.0493252,0.732549,0.892712,-0.442402,-0.718559,-0.0914849,-0.907539,0.524147,0.920757,-0.432311,0.460799,0.335504,0.614004,-0.374008,-0.757137,-0.613971,0.61694,-0.87422,-0.515644,0.936625,-0.314243,-0.251402,-0.0955234,0.469574,-0.186266,-0.251402,-0.0955234
0,0,206,0.478987,0.851589,-0.491807,-0.871762,0.192589,0.0583131,0.616719,-0.827459,0.475573,0.834377,0.132352,0.583419,0.850552,-0.378069,-0.0855914,-0.44896,0.724724,-0.450605,0.857198,0.887925,-0.872322,0.204808,0.556704,-0.610093,-0.0707378,0.309995,-0.52457,0.302179,0.248212,-0.198874,0.474805,-0.720604,-0.473219,-0.198874,0.415253,-0.795096,-0.473219
0,0,207,0.89512,-0.198365,-0.0527127,0.0834379,-0.80374,0.803181,-0.136047,-0.695191,0.626708,-0.107045,0.312401,-0.00728393,-0.108323,-0.0591117,-0.464072,-0.763588,0.439643,-0.302186,-0.871139,-0.276964,0.104632,0.129134,-0.6968,-0.890095,-0.131272,-0.757995,-0.214027,-0.235255,-0.533576,-0.205197,-0.252044,0.911852,-0.31831,-0.205197,-1.76404,0.911852,-0.31831
0,0,208,-0.79492,-0.691615,0.551402,0.126822,-0.270905,-0.187982,-0.156617,-0.219802,0.255294,-0.329656,-0.52304,-0.313743,0.761112,-0.424725,0.790516,-0.466132,0.141759,-0.52349,-0.368446,-0.269233,-0.47925,0.437246,0.0647142,-0.560319,-0.621583,0.95445,0.054215,0.0792732,-0.731965,-0.666374,0.23647,0.2986,-0.353382,-0.475224,0.23647,0.2986,-0.353382
0,0,209,0.266023,-0.740857,-0.035052,-0.574807,-0.366015,-0.105927,0.257738,0.692861,-0.449889,0.439164,0.603463,-0.2525,0.515218,0.360618,0.926227,-0.212783,-0.767762,0.488653,-0.194669,0.944324,-0.6828,0.14358,0.166912,0.817202,0.609886,-0.612369,0.0314651,0.0454879,-0.901626,-0.775242,-0.767323,-0.760977,0.568586,-0.775242,-0.843799,-0.679296,0.997756
0,0,210,-0.419652,-0.340581,0.38396,-0.120849,0.439795,0.681356,-0.0606024,0.860811,0.544131,-0.651019,0.844036,-0.91838,-0.317167,-0.308692,0.263457,-0.711987,-0.0695008,-0.978666,0.0911793,0.517538,-0.910777,-0.30297,0.784255,-0.0948615,0.5247,0.530745,0.944629,-0.323276,0.308378,-0.604557,-0.350732,-0.620327,0.133811,-0.526071,-0.507131,-0.688716,0.1229
0,0,211,-0.0438675,0.0182343,-0.2656,0.925491,0.360756,-0.364993,0.890851,0.878815,-0.0857979,0.357765,0.201505,0.509024,0.892181,-0.179654,-0.657483,-0.487217,-0.134326,-0.798454,-0.259587,0.631782,0.261,-0.749168,0.837452,-0.690921,0.0675633,-0.830547,-0.766585,-0.0724922,-0.840107,0.0556781,-0.597491,0.381959,0.791627,-0.19797,-0.597491,0.0864361,0.0499634
0,0,212,0.363259,-0.730357,0.853746,-0.888508,-0.644413,0.330959,-0.70871,-0.0113895,0.778175,-0.036107,-0.0363514,-0.0270552,-0.337498,-0.40954,-0.189038,0.399764,-0.273698,-0.45677,0.796269,0.586028,-0.993969,-0.588286,0.441444,0.167624,0.313981,0.806112,0.0930917,0.882501,0.488675,0.677676,0.827939,0.13865,0.887973,0.677676,0.127632,0.13865,0.715705
0,0,213,-0.727883,-0.665219,-0.224228,0.987586,0.771419,0.979757,-0.826898,-0.437933,-0.735458,0.584598,0.6464,-0.314306,0.108061,0.046059,0.678597,0.388837,-0.325253,-0.988578,-0.753522,0.133783,0.74969,-0.812088,0.281567,0.745459,-0.384003,-0.0513434,-0.44963,-0.719172,0.318572,0.00821626,0.665029,0.0101489,-0.690283,0.284747,0.938791,0.0101489,-0.690283
0,0,214,0.482676,-0.913167,-0.0241475,-0.95038,0.291715,0.892476,-0.0917659,-0.0869884,0.623033,-0.752833,-0.234297,-0.347721,0.415544,-0.953614,0.362447,-0.808405,0.163107,-0.486954,0.779165,-0.580249,0.0632572,0.509935,-0.709162,0.311276,-0.976765,-0.597502,-0.990491,0.670574,-0.24,-0.233664,0.808873,0.911636,-0.132847,0.352399,-0.74485,0.911636,-0.132847
0,0,215,-0.0671511,0.773386,-0.0932827,0.821156,0.946513,-0.528335,0.206541,-0.470847,-0.505962,0.674682,0.884142,-0.441661,0.641099,-0.18517,-0.726888,-0.917426,0.135789,0.521515,0.527413,-0.169077,0.818456,-0.794015,-0.228309,0.253148,-0.880267,0.715285,0.0304333,-0.0280683,-0.194119,0.549007,-0.248755,0.409163,0.938304,0.373475,-0.248755,0.726535,0.64003
0,0,216,-0.325248,-0.468623,-0.286879,-0.550378,-0.61553,0.199696,0.955472,0.450125,-0.61908,-0.00214844,0.964413,0.986219,0.808517,0.184432,-0.704982,0.874199,0.896145,0.15913,-0.333548,-0.752513,-0.509237,0.355001,-0.896881,-0.0918289,-0.533737,0.313892,-0.373421,0.0646193,0.211656,0.545436,0.190409,0.518617,0.86764,0.545436,-0.168639,1.03545,-0.747762
0,0,217,-0.962174,0.694762,-0.43328,-0.657766,-0.8065,-0.0545568,0.145416,-0.378407,0.260295,-0.483928,0.311895,0.46094,0.196275,-0.518951,-0.60729,-0.834724,0.848189,0.631751,0.994811,0.0302581,0.952246,0.710261,0.907376,0.927764,-0.0873127,-0.447261,-0.396071,-0.784698,0.340128,0.43747,-0.894591,-0.481824,0.886588,0.43747,-0.685392,-0.347736,0.784573
0,0,218,-0.29857,-0.362656,0.496925,0.998855,-0.216298,0.162532,0.390841,0.189615,0.770565,0.709529,0.957096,0.938668,0.272189,-0.58447,0.116675,-0.348902,0.652722,0.79785,-0.987725,-0.725479,-0.693431,0.607936,-0.574339,0.101577,-0.864221,-0.664774,-0.127327,-0.755686,-0.0508303,-0.461705,-0.0447913,-0.949978,-0.864156,-0.461705,-0.451592,-0.949978,-1.80663
0,0,219,0.761588,0.859199,0.603846,-0.960188,0.655836,0.932669,-0.266571,0.856949,0.62083,0.895693,0.504417,0.754977,0.065616,0.0194783,-0.41217,-0.721739,-0.180037,-0.578974,0.958678,0.364515,-0.930662,-0.943578,-0.681301,0.96995,-0.133449,-0.767621,-0.184467,-0.374534,-0.900584,0.403378,0.58917,-0.551145,0.225643,0.0803849,-0.559354,-0.621295,-0.152637
0,0,220,0.618582,-0.673483,-0.179348,-0.727687,-0.991757,0.362276,-0.632576,-0.662789,-0.574108,0.1255,0.0520245,-0.819133,0.442072,0.945623,0.773706,0.511239,0.398044,-0.970814,-0.692181,0.490278,-0.699778,0.856551,0.514897,0.138309,-0.958768,0.274508,-0.234897,-0.615212,-0.795054,-0.379384,-0.976526,-0.552697,0.935717,-0.379362,0.612658,-0.552697,0.935717
0,0,221,0.989728,0.0519769,0.874272,-0.789109,0.74297,0.330165,-0.243208,0.511383,0.916299,-0.535383,0.050265,0.87668,-0.974835,-0.798064,-0.705933,0.20893,-0.655823,-0.749531,0.45448,0.470348,0.462386,0.201985,0.803278,-0.660326,0.075979,0.694527,-0.467316,0.118406,-0.600491,0.947599,-0.502184,-0.799847,0.741643,0.436975,-1.31222,-0.799847,0.488272
0,0,222,-0.314656,-0.306151,-0.620865,-0.864208,0.413506,0.889552,-0.429242,0.965192,-0.890043,-0.120588,0.329403,-0.238992,-0.433706,-0.639792,0.85276,-0.0935867,-0.669875,-0.969463,-0.381529,0.921501,-0.338895,0.936047,0.897924,-0.908136,-0.00605011,-0.758825,0.276459,0.040659,-0.609485,-0.444118,0.411384,0.705376,-0.962438,-0.083964,1.18627,0.705376,-0.121657
0,0,223,-0.095499,0.617661,0.519359,0.892396,0.837079,-0.63786,-0.909383,-0.666598,-0.707456,-0.538767,-0.642017,0.863599,0.771896,-0.710979,0.199355,-0.651362,0.0929814,-0.509198,0.351674,0.674003,0.080883,-0.775158,0.944233,0.922438,-0.505074,0.299523,0.171973,-0.0903721,0.457759,0.257253,-0.837269,-0.542165,0.425876,3.83528,0.485955,-0.384741,0.425876
0,0,224,-0.805069,0.491127,0.508394,-0.843468,0.979084,-0.0153583,0.762072,-0.932583,-0.309859,0.510411,0.0436927,-0.546339,-0.251934,0.708728,0.746694,-0.54426,0.70166,-0.303255,-0.0755217,-0.42332,-0.0343674,0.154202,-0.509264,-0.371481,-0.487651,0.957193,-0.449513,0.870588,0.441311,-0.940154,-0.654249,0.161366,-0.789198,-0.524713,-0.654249,0.650329,-0.789198
0,0,225,-0.0416682,-0.445513,-0.562701,0.229553,0.930588,-0.627353,-0.722367,-0.488778,0.843541,0.254335,-0.168408,-0.421417,0.962416,-0.880442,-0.251431,-0.713037,-0.4343,0.68017,-0.681742,0.516536,0.0226599,-0.650432,0.185546,0.482448,0.857952,0.65249,-0.938527,0.628782,-0.260494,0.829894,0.298803,-0.126295,-0.640553,-0.874517,0.298803,-0.126295,-0.640553
0,0,226,-0.249975,-0.449084,0.730653,0.096108,0.61762,-0.0540619,-0.246407,0.730848,-0.37982,0.776054,0.0358592,-0.852438,0.884699,-0.203762,0.563421,-0.104363,0.386388,-0.355574,0.532177,-0.239819,0.702387,0.318075,0.368403,-0.82388,0.105258,-0.481384,0.0576544,0.792781,0.433881,0.0882103,0.696886,0.550334,0.304407,0.19309,0.541658,0.185637,0.175671
0,0,227,-0.0707873,0.741865,-0.501207,-0.961124,-0.23023,-0.734682,-0.087908,-0.0355219,0.364572,-0.665777,-0.487997,-0.121107,0.130534,-0.686234,-0.108137,0.525691,-0.636939,-0.611952,0.629024,-0.627595,-0.894438,0.0779527,0.573697,0.889055,0.170562,0.284242,0.986411,0.722251,-0.388844,0.0133035,-0.620423,0.908497,0.93358,0.0133035,-0.620423,0.908497,0.93358
0,0,228,0.24076,0.336462,0.4728,0.130032,-0.0319525,0.0557987,-0.672008,0.235109,0.497699,0.958693,-0.404989,0.228518,0.0504681,0.694999,-0.872285,-0.479856,0.727896,-0.779424,0.516561,-0.641266,-0.687339,0.311454,0.762336,-0.326453,-0.708631,0.610159,0.292991,-0.948022,0.251655,-0.856759,-0.870689,-0.847095,-0.900692,-0.240132,0.752289,-0.847095,-0.538916
0,0,229,0.0441644,0.0881066,-0.86578,0.167132,0.333129,0.758168,-0.998516,-0.848697,-0.844059,0.419837,-0.378029,-0.384214,0.777284,-0.240371,-0.013422,-0.448807,-0.705141,-0.515371,-0.689206,-0.651219,0.76581,0.669366,-0.349214,0.524568,-0.216229,-0.301725,-0.540854,0.5266,0.149666,0.606375,0.957109,0.504967,0.762356,0.104584,2.08682,0.504967,0.762356
0,0,230,0.110055,-0.432777,0.626592,-0.0142341,-0.0445368,0.427974,-0.695201,-0.279019,-0.559494,0.032508,-0.288481,-0.359015,0.796544,0.287867,0.854226,0.216458,-0.953416,-0.642803,0.755547,0.730073,-0.555628,0.845086,-0.953856,0.384525,0.272962,0.45975,-0.679601,-0.76422,0.458526,0.622305,0.200759,-0.170919,-0.594459,0.874716,0.200759,-0.170919,-0.585318
0,0,231,-0.0285609,0.955726,-0.715433,0.161015,-0.545737,-0.519445,-0.918244,0.577666,-0.591679,0.0106712,0.503202,0.75161,0.617807,0.912914,0.956761,0.552834,0.410715,0.981512,0.945015,0.166608,0.180815,-0.00122467,-0.479435,-0.156075,-0.512005,0.930467,-0.988546,-0.218084,-0.00787708,0.977408,-0.142177,0.724056,0.844501,-0.100737,-0.318231,0.724056,0.939677
0,0,232,0.740009,-0.549142,-0.587253,-0.0552699,-0.275513,-0.701869,-0.54563,-0.142529,-0.294626,0.900941,0.370765,0.995334,0.59274,-0.793878,-0.0222125,0.869481,-0.401775,-0.0637164,0.619411,-0.635498,0.752702,-0.352858,-0.509215,-0.00947429,0.883869,-0.334204,-0.982072,0.174593,0.216544,-0.500485,0.641244,0.874287,-0.453038,-0.500485,0.641244,2.22097,-0.453038
0,0,233,0.0430133,-0.0871032,-0.534431,0.321319,-0.903833,-0.810791,0.424579,-0.836395,-0.638801,0.589388,-0.526456,-0.54312,-0.697204,0.379938,0.609291,0.431509,0.0586758,0.323978,-0.259213,0.0318488,-0.670575,-0.820896,0.572029,-0.52151,-0.353807,-0.760556,0.333933,0.360969,0.187317,0.854076,0.462831,-0.383578,-0.299595,0.854076,0.462831,3.44257,-0.299595
0,0,234,-0.718434,-0.493753,0.686873,0.227996,0.99025,-0.313804,-0.377029,0.555713,0.218289,-0.342832,0.404253,-0.155593,0.598691,-0.731212,0.791779,0.282625,0.959859,-0.642251,-0.169721,-0.435197,-0.585627,-0.951306,0.21208,-0.109982,0.926481,0.783522,-0.677657,0.764926,0.751052,0.39475,0.474427,-0.181049,-0.194799,-0.122823,0.474427,-0.252847,0.0935753
0,0,235,-0.831065,-0.89081,-0.713889,0.192412,0.83445,-0.0880651,0.818374,-0.11288,-0.633685,0.761842,-0.590096,-0.399086,-0.790126,0.922593,-0.961855,0.540036,0.932335,-0.88956,-0.298352,-0.571667,-0.520501,-0.0568884,-0.142253,-0.97812,0.810538,0.573506,0.593738,-0.206523,-0.161944,-0.790453,0.77838,0.193554,-0.961638,-0.215484,0.778147,0.777355,-0.961638
0,0,236,-0.970483,-0.210012,0.246666,0.83877,0.403983,0.82376,-0.769919,0.18201,0.8877,0.0288956,0.801399,0.990731,0.3786,-0.0506998,-0.694198,-0.732695,-0.893766,0.255215,0.542575,-0.36244,0.0984436,-0.682162,0.2395,0.200603,0.194731,0.356133,-0.0359104,-0.161699,0.119775,-0.927633,0.490619,0.949088,-0.539259,-0.60943,-0.17446,0.949088,-1.05107
0,0,237,-0.326245,0.625899,-0.297959,0.587214,0.76158,-0.987435,-0.608905,-0.0859323,0.0722501,0.559522,0.121443,0.948183,-0.627547,-0.264031,-0.541948,0.584619,0.509375,-0.169503,-0.000768295,-0.922314,-0.0741999,0.846077,0.922223,-0.116269,-0.380697,-0.225344,-0.499343,0.0313461,-0.039725,-0.923863,-0.993739,0.972868,-0.312862,0.0694754,-0.993739,0.972868,-0.312862
0,0,238,-0.647712,0.503341,0.3578,-0.554072,0.474401,-0.44297,-0.0728054,0.942705,0.427605,0.125913,-0.5326,0.387934,0.481907,0.644696,-0.804782,0.538102,0.381959,0.770531,0.580593,-0.626835,-0.89906,0.650201,0.590815,0.665278,0.525785,-0.184164,0.272159,0.723481,0.446781,0.931461,-0.162021,0.664777,-0.21713,-0.296457,-0.296796,0.449108,-0.47365
0,0,239,0.506671,-0.425258,-0.667279,0.572721,-0.218294,-0.707112,-0.923888,0.263603,-0.96792,-0.00581222,0.874843,-0.606556,-0.211219,-0.256605,-0.847695,-0.886562,0.622115,-0.599703,-0.381394,0.953789,-0.186819,-0.0515659,-0.807525,0.897307,0.00136062,-0.931351,-0.438508,-0.742926,0.0243203,-0.465272,0.463964,-0.0670285,-0.310738,-0.465272,0.463964,-0.0670285,1.67637
0,0,240,-0.387395,-0.471248,-0.887891,-0.384917,-0.976848,-0.0200131,0.0338033,0.652955,0.398703,0.819162,0.350128,-0.370152,-0.561231,-0.261018,-0.556546,0.0623632,-0.324419,-0.111905,-0.028469,0.418051,-0.483208,-0.316698,-0.987274,-0.253834,0.652012,-0.588346,0.10239,0.948195,0.85406,0.314092,-0.910682,-0.826508,0.696153,0.314092,-0.910682,-1.00683,-2.33104
0,0,241,0.101884,-0.634295,0.717186,-0.00656836,-0.309766,-0.0592978,-0.0983576,0.56662,-0.108305,-0.07792,0.148588,-0.738454,-0.745283,-0.87986,-0.207327,-0.0300828,-0.997771,0.847738,0.233173,-0.057308,-0.391268,0.311655,0.493384,-0.590319,0.618912,-0.750501,-0.958103,-0.579121,-0.920503,-0.254771,-0.141687,-0.650812,-0.448197,-0.254771,-0.867311,-0.650812,0.225502
0,0,242,0.400568,0.0861149,-0.832866,-0.407297,0.731009,-0.753115,0.885354,0.189367,-0.184934,-0.931794,0.179193,0.611497,0.421902,0.66745,-0.92152,-0.751297,0.0571358,-0.748777,-0.389402,0.248316,0.645423,-0.905858,-0.348415,-0.0892497,0.0956103,-0.963065,0.801914,0.298812,-0.712058,-0.514251,-0.169837,-0.937662,0.374627,0.025872,-0.169837,-0.069282,0.682971
0,0,243,-0.617661,0.875756,-0.833198,-0.624407,-0.792856,-0.561346,0.757011,0.446887,-0.122209,-0.589506,0.88705,0.594834,-0.929974,-0.38784,-0.123164,0.185796,-0.211047,0.0444191,0.0983443,0.2191,0.279884,0.274876,0.310641,-0.317049,-0.489148,-0.355175,-0.6883,-0.150256,0.212153,0.313074,-0.917375,0.28281,0.785351,0.313074,-0.917375,-0.187957,0.420595
0,0,244,-0.168488,-0.863819,0.82907,-0.25227,-0.09003,-0.897019,0.043942,-0.217785,-0.715888,0.0271323,0.83056,-0.953368,0.749993,-0.465882,-0.439136,0.980078,-0.37724,0.49754,-0.58931,0.695776,0.646057,0.52725,-0.293696,0.303525,0.56004,-0.874574,0.716658,0.125628,-0.643547,0.150577,-0.597952,0.517079,0.995046,0.620269,-0.597952,1.50819,1.30533
0,0,245,-0.504536,0.386738,-0.319962,-0.474373,-0.967223,0.99655,-0.332814,-0.0362524,-0.174466,-0.819196,-0.0380579,-0.0602213,0.799868,-0.0672225,-0.302283,-0.418724,0.807038,-0.465188,0.859148,-0.19108,0.211467,0.644973,0.965113,-0.399875,0.708918,0.544246,-0.620973,0.613215,-0.582568,-0.712588,-0.146321,0.9087,-0.593052,-0.712588,0.141241,0.9087,-0.83342
0,0,246,0.0109493,0.322863,-0.476156,0.105237,-0.253884,-0.750591,-0.13402,-0.296594,-0.830235,-0.293039,0.0563275,-0.217676,0.775164,-0.383756,-0.920122,0.375928,-0.34816,-0.865964,0.333189,0.95637,-0.847476,0.493513,-0.769461,-0.52782,0.334997,0.846787,-0.497938,-0.891087,-0.494254,-0.507776,0.0278671,-0.826243,0.454196,1.77757,0.0278671,4.81365,0.454196
0,0,247,-0.774701,-0.115731,0.174353,0.217121,-0.455886,-0.420099,0.101569,0.576315,-0.427474,0.910924,-0.945338,-0.0333554,-0.362482,0.957849,-0.187544,-0.864935,-0.434312,0.981885,0.378999,-0.355933,-0.553587,0.841745,-0.820711,-0.546769,-0.748593,0.481453,0.727003,-0.635169,0.879949,-0.559615,-0.768263,-0.092413,0.0568843,0.0511264,-0.539318,-0.0223733,0.871989
0,0,248,0.93674,0.440169,-0.0109756,-0.935215,0.753982,0.994625,-0.108703,0.485189,0.282374,-0.0596442,-0.0742428,0.567094,-0.268,-0.0353393,-0.136161,-0.438563,-0.20236,-0.688944,0.938566,-0.490118,-0.388974,-0.211813,0.886394,0.743478,0.507384,0.241886,0.442295,0.478843,-0.401162,0.295459,-0.266656,0.475067,0.32233,0.242777,-0.43393,0.475067,0.20361
0,0,249,0.200087,-0.413572,-0.393185,-0.857548,-0.709312,0.734241,-0.796333,0.0135519,0.487563,-0.393618,0.697187,-0.717431,-0.353325,-0.0399012,-0.606458,0.870576,-0.257404,0.391195,0.764332,-0.20224,0.168451,-0.49717,-0.0159202,0.340358,-0.783711,-0.332849,0.516999,0.286468,-0.465519,0.239573,-0.119191,0.350857,-0.172262,0.239573,-0.615043,0.350857,-0.156319
0,0,250,0.477931,-0.494681,0.0169522,0.964773,0.514848,0.165223,-0.292946,0.523299,-0.121771,-0.211836,-0.607072,-0.549805,-0.51839,0.282109,0.602285,-0.660439,-0.50886,-0.68627,-0.381285,-0.298611,-0.876773,0.197057,-0.0652894,0.663161,-0.463337,0.735606,-0.108457,0.512728,-0.519674,0.07271,-0.310077,-0.505557,0.539899,0.172681,-0.267672,-0.500537,0.527774
0,0,251,0.820154,-0.253098,0.53474,0.867752,-0.103278,-0.0140004,0.903287,-0.302304,-0.935225,0.0602903,0.645264,-0.375236,-0.279962,-0.28362,-0.0978409,0.219887,0.418983,-0.975667,-0.670863,-0.276144,0.35705,0.401377,-0.0728001,0.969731,-0.670092,0.520126,0.0467511,0.951868,0.226499,0.863029,-0.905945,-0.381484,0.936303,0.118451,-0.905945,0.709732,1.0641
0,0,252,-0.642477,0.0575048,0.757908,0.136809,0.650235,-0.261121,0.0387402,0.710742,0.169987,0.0816131,0.587553,0.297689,-0.687091,0.159904,-0.743664,-0.15287,0.613242,0.634829,0.338874,-0.431622,0.452654,-0.595677,-0.600832,-0.120771,0.433552,0.0818086,-0.680454,-0.927503,-0.402259,0.115559,-0.529192,-0.744237,-0.422039,0.142595,-0.529192,-0.744237,-0.321649
0,0,253,-0.0434114,0.827246,-0.273055,0.917041,-0.757228,-0.110062,0.559187,-0.555422,0.907052,0.769356,0.385904,0.414881,0.193018,0.841597,-0.554426,0.381152,0.687085,0.962793,0.117695,0.449284,0.972374,-0.281684,0.229666,0.161564,-0.631462,-0.961718,0.240985,0.525634,0.780802,-0.226692,-0.259591,0.160981,-0.787994,-0.226692,-0.370471,-0.473262,-0.859859
0,0,254,-0.0396992,-0.246088,0.219664,-0.119727,-0.485851,0.293875,0.781734,-0.828941,-0.761211,-0.182378,0.0429171,-0.347497,0.730599,0.0565821,-0.101776,0.134749,-0.28891,-0.0134005,-0.752822,0.0786355,0.489691,-0.702408,0.129873,-0.933344,-0.551065,0.221888,-0.249412,0.920383,-0.800384,-0.748946,0.0186606,0.310292,-0.667628,-0.748946,0.534493,0.670921,-0.667628
0,0,255,-0.235554,0.95765,-0.548695,-0.783071,-0.0875078,-0.413775,-0.021647,0.0980679,-0.984428,-0.768947,-0.0619391,-0.772827,0.645034,0.555903,0.740447,-0.178001,-0.351433,-0.749732,-0.927215,0.12555,0.896555,0.753275,0.185939,0.11372,-0.245381,0.207579,-0.274516,-0.831719,0.1963,0.609907,-0.387083,-0.691063,0.0716255,0.609907,-0.387083,-0.677906,1.09692
0,0,256,-0.797298,0.15636,0.0841369,-0.903032,0.283195,0.229469,-0.172734,-0.324504,-0.333423,0.562497,-0.363791,-0.630921,-0.931968,0.924527,-0.727146,-0.768338,0.648039,0.31056,0.868382,-0.488031,0.889167,-0.244398,0.106876,0.798141,-0.660035,-0.155059,-0.393604,0.0536048,0.265612,-0.506398,-0.666288,0.35016,0.538785,0.504955,0.262635,0.32542,0.538785
0,0,257,-0.612831,-0.218935,-0.16734,0.642527,-0.0384497,-0.401019,0.545591,0.905231,0.358858,-0.20692,-0.488877,0.868007,0.64673,0.103742,0.671137,0.189147,-0.594677,-0.132592,0.870182,-0.372301,0.86665,-0.799444,0.0110194,0.808027,0.544307,0.951075,0.859731,-0.486591,-0.824467,0.339954,-0.177294,0.994821,-0.287713,-0.127054,-0.511165,0.502391,-0.744676
0,0,258,-0.855792,0.126165,-0.646688,0.345436,-0.824567,-0.139901,0.483302,-0.234141,0.763397,-0.998695,0.487414,0.151471,-0.751662,-0.6267,-0.246166,0.71232,-0.639301,-0.114511,0.262854,-0.257041,-0.0122477,-0.346548,0.18828,0.514996,-0.869838,0.599478,0.887752,-0.780195,-0.579072,0.150722,-0.221137,-0.554821,0.197701,0.150722,-0.75077,-0.434742,0.197701
0,0,259,-0.703138,0.577665,0.888472,0.153083,0.117906,-0.388119,-0.115931,0.881073,0.769693,0.108461,0.290161,-0.75163,-0.260749,0.653561,0.189498,-0.875916,-0.264254,-0.981172,-0.697157,0.0602654,0.243952,-0.472039,0.959711,-0.226014,0.59918,-0.20613,0.438901,-0.167765,-0.99681,-0.478938,0.312804,-0.653271,-0.508587,-0.478938,0.17005,-0.653271,-0.80178
0,0,260,-0.376999,-0.204581,0.249526,0.480504,-0.695988,-0.511972,-0.744237,-0.533312,-0.170926,-0.856146,-0.999808,0.84952,-0.243965,0.0903331,0.373828,0.345483,-0.790422,-0.917817,-0.984892,-0.516093,0.668453,-0.0803195,-0.00877611,-0.49705,0.481053,-0.536518,0.678479,-0.778193,-0.0861997,0.604879,0.424323,0.842649,-0.119382,0.604879,0.424323,0.842649,-0.119382
0,0,261,-0.697804,-0.389471,-0.975018,0.18216,-0.717071,0.46892,-0.3632,0.937006,0.694081,-0.755333,-0.554223,-0.460853,0.160872,-0.126367,0.94535,-0.399435,-0.707543,-0.669259,0.910052,-0.487741,-0.438555,0.696233,0.892184,0.00163694,-0.18717,-0.727227,0.174064,0.230973,0.729603,-0.976613,0.495859,-0.52565,0.699963,-0.976613,-0.181875,-0.52565,-0.613752
0,0,262,-0.429064,0.630416,-0.635248,-0.748978,0.778518,0.486121,-0.715523,0.974817,-0.489368,-0.117013,-0.753921,-0.802584,-0.432039,-0.332083,0.455021,-0.302946,-0.82474,-0.430347,0.137653,0.465287,0.526994,0.718118,0.785,-0.403873,-0.765914,-0.720898,-0.442591,-0.384748,-0.00380244,-0.0878207,-0.713001,-0.434858,-0.839667,0.434039,-0.0734407,-0.434858,0.206525
0,0,263,-0.776047,-0.724804,0.343712,-0.781061,0.188207,-0.234775,0.678903,0.998973,0.587201,-0.121298,-0.259518,-0.764644,-0.988529,0.299152,-0.0536924,-0.406913,-0.435993,-0.6515,0.787736,0.210591,0.346343,0.138286,0.767507,-0.0423802,0.21828,-0.0266471,0.647021,-0.505475,0.209784,-0.126847,-0.310699,0.26324,0.0757077,-0.182215,-0.107859,-0.135308,-0.459842
0,0,264,0.143713,0.0472948,-0.721045,-0.149137,-0.671213,-0.165293,0.478325,-0.970023,0.866725,0.394787,0.935237,0.606945,-0.096855,-0.141878,-0.617433,0.75534,0.498784,-0.869984,0.108599,-0.744556,-0.598055,0.702512,-0.243736,-0.644937,-0.210716,-0.199006,0.185981,0.372029,0.500987,-0.780704,-0.534675,-0.739812,-0.900293,-0.780704,-0.534675,-1.9528,-0.900293
0,0,265,-0.107312,0.591856,0.0648518,0.382602,0.935682,-0.173679,-0.230187,0.296318,0.552181,-0.540286,0.890338,-0.766593,0.430105,-0.766877,-0.9036,-0.268153,0.754301,-0.987752,-0.456227,0.505009,0.277489,0.0414641,0.883107,-0.513025,-0.610208,-0.94635,-0.242175,-0.489289,0.132298,-0.251952,0.705336,-0.304794,-0.396914,-0.716533,0.450853,-0.304794,-0.891132
0,0,266,-0.781686,-0.377886,0.917396,0.26821,-0.766712,0.699613,-0.776234,-0.191165,-0.334363,0.156552,0.67527,-0.12865,-0.828153,0.604237,0.80147,-0.946963,-0.14286,0.376444,0.0856724,0.363926,-0.568999,-0.396818,-0.0370885,0.437876,-0.610821,0.91479,-0.472295,0.62079,-0.763798,-0.441242,-0.987787,-0.837874,-0.351977,-0.441242,0.328486,2.77473,-0.351977
0,0,267,0.772379,-0.358459,-0.924482,-0.515268,0.375606,-0.771627,0.29464,-0.978513,0.28757,-0.693778,-0.302342,0.95631,0.907859,-0.65772,0.29901,0.252729,-0.955601,-0.5953,0.124077,0.965158,-0.707877,0.0377266,-0.49752,0.970692,-0.665574,-0.379762,-0.576181,-0.542197,-0.408655,-0.223419,-0.565429,0.819484,0.141833,-0.721872,-0.565429,-0.491766,0.141833
0,0,268,0.169402,-0.227734,0.717034,-0.929466,-0.458213,-0.189062,0.285833,-0.0376877,0.597733,0.988901,0.600291,-0.0965386,-0.347646,0.395097,0.546638,0.432136,0.691156,0.0614601,0.379345,-0.310511,-0.250471,0.662431,0.676112,-0.759027,-0.0605543,0.0109036,0.603067,-0.584386,0.785722,-0.29193,-0.675132,0.174476,0.756121,-0.281487,-1.33347,0.249702,1.02616
0,0,269,0.229389,0.279185,0.150834,-0.0471434,0.744808,-0.22416,0.03284,0.808225,0.75169,0.791506,0.854544,0.425615,0.389435,-0.0391108,0.721048,-0.734951,-0.228875,-0.222643,-0.690308,0.0820485,0.0112312,0.38802,-0.268551,-0.93997,0.666315,0.269907,-0.0788504,0.376799,-0.240322,0.0933076,-0.844805,0.143274,0.352346,-0.480388,-0.844805,0.10191,-0.238555
0,0,270,0.311678,-0.196769,0.474889,0.460917,0.393992,0.20464,0.538687,0.735943,0.715152,0.968407,-0.609525,0.696033,0.366684,0.54571,-0.440859,-0.927866,-0.485638,0.758543,-0.909949,0.953277,-0.790959,0.353967,0.652009,-0.155051,-0.032474,-0.822488,0.467273,0.405704,-0.549196,-0.732854,-0.145418,0.438688,-0.531638,-0.841451,-0.202752,0.0475319,-0.799187
0,0,271,0.927264,-0.61441,0.924609,-0.275027,-0.50692,0.255354,0.547015,-0.283498,0.53923,0.930954,-0.319511,0.0272168,0.818041,-0.839415,0.934879,-0.10576,-0.548128,0.344584,-0.82386,0.017282,0.835961,0.110812,0.415185,-0.0749598,-0.985936,-0.433113,-0.16561,0.840953,-0.446954,-0.097836,-0.0810426,0.152082,-0.930891,-0.097836,-0.483562,-0.264172,-0.930891
0,0,272,-0.435746,0.738184,-0.474612,0.109545,-0.59075,0.532613,-0.703865,0.012025,-0.6395,-0.457066,0.824474,0.7251,-0.0676783,-0.692631,0.110236,-0.729981,0.770844,-0.295488,-0.497789,-0.169984,0.122166,-0.949212,0.516401,0.520548,0.396761,-0.530555,0.978639,0.191279,-0.0518321,-0.705103,-0.646147,-0.820241,-0.0234377,-0.705103,2.32364,-0.820241,2.36737
0,0,273,-0.892259,0.126287,0.111782,0.447169,-0.319637,0.577472,-0.847749,0.767381,0.0554159,0.938634,0.337136,-0.441602,0.906074,0.170388,-0.673039,0.631871,-0.192793,-0.363163,-0.251698,-0.56598,-0.808342,0.421315,0.806568,-0.816185,0.980931,0.884479,0.891456,-0.13769,-0.160321,-0.491777,-0.206194,-0.454083,-0.854336,-0.355541,0.427181,-0.454083,-0.411939
0,0,274,0.0754568,0.558665,-0.0395904,-0.084311,-0.661319,-0.361334,-0.185141,-0.188445,-0.424386,-0.356646,-0.436986,-0.936679,0.971629,-0.367329,-0.956595,-0.250085,-0.927173,-0.678946,-0.998365,-0.0122569,0.0369799,0.055242,-0.1694,0.440355,-0.937888,0.196885,-0.741309,-0.380934,-0.995961,-0.437901,0.774714,0.447318,-0.774206,-0.437901,0.774714,0.882729,-0.774206
0,0,275,0.766513,0.213755,-0.568612,-0.100692,0.0672658,0.471035,-0.799362,0.128278,0.296145,-0.891822,-0.172343,-0.787424,-0.127981,0.148684,-0.39528,-0.362341,0.453294,-0.292416,0.1388,0.815158,-0.488374,0.916887,0.626373,-0.644399,0.830329,-0.231563,0.536157,-0.220883,-0.761128,-0.261659,-0.461096,-0.603697,-0.271027,-0.0205983,-0.0741974,-0.603697,0.328363
0,0,276,0.370507,-0.130042,-0.180713,-0.736851,-0.630583,0.32655,-0.549116,0.667967,-0.118308,-0.0587578,0.92015,-0.662165,-0.881244,0.806852,0.390019,-0.962007,0.219598,0.617786,0.878092,0.495164,-0.527837,0.175805,-0.385721,0.459073,0.574511,-0.968134,-0.916848,0.787249,-0.408275,-0.993167,-0.581248,-0.113497,0.369519,-0.980645,-0.256516,-0.113497,0.394839
0,0,277,-0.289864,0.98409,0.145538,0.273269,-0.0345994,-0.0520374,-0.834592,-0.647234,0.123561,0.675725,-0.991496,-0.0954652,0.82104,0.946359,-0.330312,0.367332,0.535099,-0.637786,0.611203,0.870604,-0.448573,-0.989307,0.818835,0.66828,0.934635,-0.796405,0.565242,0.0765146,-0.860912,0.073314,0.631725,-0.0641377,-0.418376,0.073314,-0.174887,-0.117501,-0.418376
